svm_type c_svc
kernel_type rbf
gamma 1.04098e-05
nr_class 4
total_sv 6565
rho -0.184776 -23.9453 -16.4095 -24.4726 -23.8909 -0.0699822
label 1 2 0 3
probA -3.06686 -4.56029 -4.03243 -4.26931 -3.32212 -4.25262
probB 0.0120182 0.148159 0.116951 -0.0503564 0.0806839 0.0980769
nr_sv 1791 2205 1378 1191
SV
1495.148727146329 0 1046.769682840804 205:1 1114:1 2698:1 8268:1 12230:1 14098:1 19264:1 21793:1 21824:1 21825:1 21866:1 21868:1 21903:1 22009:1 22604:1 24401:1 29789:1 29988:1 30686:1 32640:1 35515:1 38505:1 38523:1 38806:1 39282:1 39719:1 41504:1 42681:1 42775:1 42850:1 43076:1 43095:1 43140:1 43235:1 44944:1 45353:1 50449:1 51037:1 56444:1 57208:1 61700:1 62102:1 66303:1 66354:1 66385:1 66410:1 66418:1 66467:1 66497:1 66545:1 66722:1 66937:1 67094:1 67212:1 67640:1 67900:1 68380:1 68740:1 69148:1 69551:1 70101:1 71284:1 72044:1 73524:1 74148:1 76169:1 79077:1 82177:1 84950:1 96034:1 
1697.9264563988 1425.867885880317 632.2284423514867 2597:1 6001:1 6914:1 8272:1 9502:1 12230:1 14098:1 15646:1 19264:1 21793:1 21826:1 21828:1 21864:1 21866:1 21900:1 24050:1 27665:1 28040:1 29793:1 29804:1 32274:1 36016:1 36535:1 38509:1 38516:1 38593:1 39111:1 40436:1 42391:1 42665:1 42786:1 42845:1 42913:1 43116:1 43168:1 43235:1 43797:1 48233:1 48834:1 54901:1 55613:1 57409:1 59358:1 59994:1 66285:1 66307:1 66347:1 66371:1 66410:1 66412:1 66452:1 66513:1 66549:1 66689:1 66848:1 67088:1 67145:1 67532:1 68083:1 68424:1 68707:1 68931:1 69484:1 69853:1 70997:1 72633:1 73261:1 76049:1 79639:1 80464:1 82181:1 92174:1 93525:1 
149.6376755160456 0 0 76:1 1422:1 2391:1 6001:1 9110:1 9502:1 14098:1 15158:1 15646:1 21793:1 21825:1 21866:1 21868:1 21883:1 21905:1 21948:1 22700:1 24077:1 27665:1 29928:1 30784:1 32301:1 36016:1 37357:1 38516:1 38836:1 39111:1 39758:1 40430:1 41533:1 42368:1 42689:1 42778:1 42850:1 42913:1 43116:1 43140:1 43190:1 43351:1 44088:1 44745:1 45358:1 47140:1 48330:1 50205:1 51060:1 53452:1 55083:1 55590:1 56500:1 57185:1 58481:1 59754:1 61647:1 62736:1 66315:1 66333:1 66394:1 66410:1 66412:1 66467:1 66508:1 66557:1 66606:1 67004:1 67088:1 67151:1 67649:1 68488:1 68624:1 69285:1 69490:1 69880:1 73236:1 73382:1 74619:1 75805:1 79639:1 81028:1 85544:1 87217:1 
1545.601183522253 707.6552588992829 555.1196576907034 328:1 2155:1 9110:1 15158:1 21864:1 21866:1 21881:1 21903:1 22208:1 23818:1 30190:1 32036:1 35518:1 38516:1 38836:1 39102:1 39596:1 41439:1 42689:1 42718:1 42850:1 42913:1 43097:1 43802:1 44639:1 45653:1 48852:1 50017:1 51477:1 55603:1 56290:1 57053:1 60424:1 61562:1 62981:1 66301:1 66347:1 66385:1 66410:1 66423:1 66543:1 66686:1 66933:1 67099:1 68344:1 68704:1 69135:1 73238:1 73656:1 75531:1 79080:1 
0 1414.996547852833 104.5245083803716 1345:1 5187:1 5711:1 8246:1 8615:1 9680:1 10942:1 13744:1 14530:1 15930:1 17638:1 21337:1 21833:1 21866:1 21902:1 21904:1 22911:1 26915:1 27421:1 29761:1 31000:1 31757:1 35164:1 35766:1 36020:1 38479:1 38516:1 38836:1 39111:1 39951:1 40421:1 40705:1 42344:1 42689:1 42783:1 42799:1 42913:1 43116:1 43122:1 43235:1 43369:1 46132:1 48201:1 52185:1 55058:1 56848:1 59507:1 59849:1 63031:1 66323:1 66355:1 66377:1 66410:1 66434:1 66458:1 66501:1 66565:1 66735:1 67110:1 67365:1 67587:1 67963:1 68575:1 68753:1 69704:1 71182:1 72245:1 74479:1 75267:1 78726:1 79339:1 79643:1 82143:1 92265:1 
98.52757392718496 0 0 141:1 2281:1 5276:1 6001:1 6752:1 9839:1 10532:1 13754:1 16141:1 17139:1 21347:1 21826:1 21828:1 21866:1 22014:1 23968:1 27018:1 27665:1 28040:1 29993:1 32186:1 35267:1 36016:1 36535:1 38516:1 38836:1 39111:1 39951:1 40436:1 41154:1 42391:1 42689:1 42783:1 42842:1 42913:1 43116:1 43168:1 43235:1 46189:1 47851:1 52266:1 54390:1 55872:1 57120:1 59160:1 60064:1 63634:1 65881:1 66319:1 66346:1 66394:1 66410:1 66412:1 66452:1 66513:1 66561:1 66680:1 67008:1 67088:1 67145:1 67532:1 68068:1 68521:1 68698:1 69304:1 69484:1 69853:1 70985:1 72564:1 73232:1 73256:1 73455:1 75684:1 78829:1 79639:1 80162:1 83800:1 90302:1 92149:1 
1409.91190370594 0 998.3631954965883 205:1 1114:1 6130:1 9805:1 11325:1 16099:1 18171:1 21824:1 21825:1 21865:1 21866:1 21868:1 21903:1 21905:1 22009:1 22604:1 27965:1 29988:1 30686:1 35513:1 36458:1 37352:1 38516:1 38717:1 39098:1 39670:1 40343:1 41006:1 42186:1 42681:1 42775:1 42816:1 42913:1 43093:1 43140:1 43187:1 46300:1 46990:1 52387:1 53238:1 56923:1 58735:1 63699:1 64664:1 66303:1 66354:1 66385:1 66410:1 66424:1 66467:1 66510:1 66545:1 66722:1 66937:1 67100:1 67277:1 67651:1 68042:1 68385:1 68740:1 69148:1 69616:1 70333:1 71352:1 73524:1 74148:1 79075:1 80078:1 81025:1 84950:1 90616:1 92774:1 94342:1 
327.3713346517935 0 116.1403874802606 2597:1 3704:1 11325:1 18171:1 21826:1 21864:1 21866:1 21882:1 21891:1 21900:1 21903:1 21904:1 24050:1 25442:1 29802:1 32274:1 33691:1 35514:1 36034:1 38516:1 38580:1 39099:1 39559:1 40352:1 41220:1 42663:1 42718:1 42845:1 42913:1 43094:1 43128:1 44426:1 45429:1 49771:1 51180:1 55455:1 57477:1 61023:1 62522:1 66312:1 66347:1 66371:1 66410:1 66425:1 66461:1 66554:1 66694:1 66848:1 67101:1 67289:1 68472:1 68712:1 68933:1 69628:1 73259:1 76049:1 77253:1 79076:1 79649:1 82317:1 88810:1 90729:1 
1115.57007458653 444.9113097246862 2200 1203:1 11768:1 18695:1 21866:1 21882:1 21892:1 21900:1 21902:1 21903:1 21904:1 22719:1 29800:1 30802:1 31757:1 35511:1 36034:1 38523:1 38560:1 39258:1 39804:1 40637:1 42661:1 42783:1 42799:1 43061:1 43091:1 43128:1 45797:1 51666:1 56923:1 62661:1 66309:1 66354:1 66377:1 66410:1 66420:1 66461:1 66551:1 66726:1 66891:1 67096:1 67246:1 68450:1 68744:1 69585:1 73257:1 74275:1 75267:1 79073:1 79649:1 85159:1 86181:1 90518:1 
0 300.1093894316975 0 1344:1 6060:1 8910:1 10939:1 14924:1 17636:1 21835:1 21866:1 21868:1 21870:1 21878:1 21886:1 21900:1 21903:1 21905:1 22910:1 27801:1 29805:1 30999:1 31814:1 35513:1 36288:1 37352:1 38516:1 38617:1 39098:1 39833:1 40343:1 40883:1 42186:1 42666:1 42783:1 42806:1 42913:1 43093:1 43140:1 43187:1 44491:1 45278:1 46895:1 49856:1 53108:1 56034:1 56656:1 58537:1 61127:1 63603:1 64363:1 66310:1 66346:1 66409:1 66410:1 66424:1 66467:1 66510:1 66552:1 66673:1 67082:1 67100:1 67277:1 67651:1 68042:1 68463:1 68691:1 69447:1 69616:1 70333:1 71352:1 73262:1 74478:1 75326:1 79075:1 79905:1 81025:1 85365:1 86412:1 90584:1 92611:1 94342:1 
2200 681.6067578556094 637.1862614386912 135:1 875:1 3576:1 8537:1 13674:1 14439:1 21244:1 21824:1 21866:1 21868:1 21903:1 21905:1 22009:1 22217:1 25305:1 29988:1 30308:1 33554:1 35511:1 37349:1 38516:1 38717:1 39096:1 39888:1 40334:1 41599:1 42172:1 42681:1 42783:1 42850:1 42913:1 43091:1 43140:1 43184:1 44563:1 45406:1 47433:1 51123:1 56564:1 56998:1 58629:1 61238:1 62446:1 64396:1 66303:1 66354:1 66368:1 66410:1 66420:1 66467:1 66505:1 66545:1 66722:1 66809:1 67096:1 67249:1 67646:1 68007:1 68382:1 68740:1 68852:1 69588:1 70261:1 71327:1 73246:1 73449:1 73756:1 77116:1 79073:1 81022:1 83388:1 84573:1 94302:1 
2200 516.815880654263 2200 2363:1 8537:1 9409:1 14439:1 15519:1 21826:1 21864:1 21866:1 21882:1 21892:1 21900:1 21903:1 21904:1 22496:1 24050:1 29800:1 32274:1 35511:1 36034:1 38516:1 38535:1 39096:1 39555:1 40333:1 41217:1 42661:1 42718:1 42845:1 42913:1 43091:1 43128:1 43832:1 46130:1 48884:1 52172:1 55493:1 57306:1 60222:1 62141:1 66309:1 66347:1 66371:1 66410:1 66420:1 66461:1 66551:1 66691:1 66848:1 67096:1 67246:1 68450:1 68709:1 68932:1 69585:1 73244:1 73257:1 74036:1 75775:1 79073:1 79649:1 86981:1 90518:1 
1981.116556847011 102.543152468064 58.88621571614541 1344:1 3704:1 10939:1 17636:1 21866:1 21870:1 21878:1 21881:1 21886:1 21900:1 21903:1 22910:1 25442:1 29805:1 30999:1 31835:1 33691:1 35518:1 38516:1 38617:1 39102:1 39833:1 40883:1 42666:1 42783:1 42806:1 42913:1 43097:1 44511:1 45429:1 49870:1 51180:1 56035:1 57477:1 61097:1 62522:1 66310:1 66346:1 66409:1 66410:1 66423:1 66552:1 66673:1 67082:1 67099:1 68462:1 68691:1 69447:1 73262:1 74478:1 75345:1 77253:1 79080:1 82721:1 85365:1 88812:1 
0 689.4200821749055 0 36:1 3911:1 7447:1 8614:1 10095:1 11680:1 13404:1 14527:1 17412:1 18589:1 21866:1 21906:1 23067:1 24576:1 25652:1 28856:1 29888:1 31164:1 32820:1 33901:1 37534:1 38516:1 38836:1 39111:1 39951:1 40439:1 41651:1 42404:1 42689:1 42783:1 42850:1 42913:1 43116:1 43173:1 43235:1 44108:1 45020:1 45545:1 47029:1 47675:1 49303:1 50579:1 51331:1 54116:1 55802:1 56342:1 57378:1 58077:1 58613:1 59331:1 60044:1 61375:1 63386:1 63994:1 65030:1 65526:1 66319:1 66358:1 66391:1 66410:1 66415:1 66466:1 66496:1 66561:1 66747:1 66981:1 67091:1 67196:1 67617:1 67884:1 68524:1 68765:1 69251:1 69535:1 71220:1 72002:1 73235:1 73342:1 77463:1 81173:1 82806:1 
323.421979099362 0 0 141:1 1676:1 2872:1 3414:1 5711:1 6914:1 7420:1 8384:1 10942:1 13130:1 14230:1 17638:1 20540:1 21828:1 21866:1 22014:1 23420:1 24574:1 25145:1 27421:1 28040:1 28821:1 29993:1 31514:1 32818:1 33394:1 35766:1 36535:1 37500:1 38516:1 38836:1 39111:1 39951:1 40436:1 41651:1 42391:1 42689:1 42783:1 42850:1 42913:1 43116:1 43168:1 43235:1 44300:1 45019:1 45345:1 47647:1 49593:1 51026:1 54080:1 55531:1 56406:1 57048:1 59111:1 60877:1 62620:1 65807:1 66319:1 66358:1 66391:1 66410:1 66434:1 66452:1 66513:1 66561:1 66747:1 66981:1 67110:1 67360:1 67532:1 68068:1 68543:1 68765:1 69251:1 69699:1 70520:1 70985:1 72565:1 73455:1 75014:1 76372:1 76956:1 79339:1 80464:1 81143:1 83696:1 85931:1 91660:1 93402:1 
2200 0 0 97:1 1574:1 2281:1 4291:1 6025:1 8542:1 10697:1 12515:1 14445:1 17352:1 19644:1 21826:1 21866:1 21868:1 21903:1 21905:1 21968:1 23270:1 23968:1 26031:1 27726:1 29948:1 31373:1 32186:1 34280:1 35515:1 36208:1 37353:1 38516:1 38836:1 39100:1 39951:1 40365:1 41154:1 42242:1 42689:1 42783:1 42842:1 42913:1 43095:1 43140:1 43188:1 43368:1 44236:1 45741:1 46836:1 48355:1 49479:1 51588:1 53037:1 55120:1 55834:1 57447:1 58620:1 59663:1 61061:1 62155:1 64394:1 66302:1 66346:1 66394:1 66410:1 66418:1 66467:1 66503:1 66544:1 66668:1 67008:1 67094:1 67212:1 67645:1 67981:1 68360:1 68686:1 69296:1 69551:1 70102:1 71308:1 72319:1 73237:1 73406:1 74871:1 75684:1 77842:1 79077:1 79826:1 81026:1 85772:1 86838:1 89424:1 90814:1 92534:1 94463:1 
2200 0 0 624:1 2214:1 3159:1 6183:1 9066:1 10697:1 11322:1 12515:1 15104:1 17352:1 18168:1 19644:1 21864:1 21866:1 21868:1 21900:1 21903:1 21905:1 23005:1 23884:1 24871:1 28131:1 29804:1 31099:1 32103:1 33120:1 35515:1 36641:1 37353:1 38516:1 38593:1 39100:1 39566:1 40365:1 41431:1 42242:1 42665:1 42718:1 42850:1 42913:1 43095:1 43140:1 43188:1 44054:1 44669:1 45204:1 47103:1 49240:1 50071:1 50830:1 53397:1 55753:1 56374:1 57292:1 58325:1 60029:1 61292:1 62137:1 64955:1 66307:1 66347:1 66370:1 66410:1 66418:1 66467:1 66503:1 66549:1 66689:1 66836:1 67094:1 67212:1 67645:1 67981:1 68425:1 68707:1 68899:1 69551:1 70102:1 71308:1 72318:1 73261:1 74573:1 75603:1 76682:1 79077:1 80275:1 81026:1 82431:1 85466:1 88277:1 90963:1 93205:1 
483.2295681767775 0 0 355:1 4014:1 6079:1 7966:1 8542:1 9066:1 11276:1 11322:1 14445:1 15104:1 18119:1 18168:1 21864:1 21866:1 21868:1 21900:1 21902:1 21903:1 22279:1 25752:1 27831:1 29463:1 29804:1 30364:1 31760:1 34001:1 35515:1 36319:1 38165:1 38516:1 38593:1 39100:1 39566:1 40365:1 40764:1 42246:1 42665:1 42718:1 42802:1 42913:1 43095:1 43140:1 43235:1 43695:1 45588:1 46926:1 48700:1 51392:1 53139:1 55666:1 56807:1 58476:1 60017:1 63026:1 64724:1 66307:1 66347:1 66375:1 66410:1 66418:1 66467:1 66497:1 66549:1 66689:1 66868:1 67094:1 67212:1 67640:1 67906:1 68425:1 68707:1 68989:1 69551:1 70101:1 71288:1 72060:1 73261:1 73809:1 75270:1 77563:1 79077:1 79936:1 81811:1 82517:1 84628:1 86217:1 89138:1 
2200 0 0 566:1 3414:1 5853:1 6232:1 8542:1 10697:1 11276:1 14445:1 17352:1 18119:1 21864:1 21866:1 21868:1 21883:1 21900:1 21902:1 21905:1 22843:1 25145:1 27532:1 28239:1 29804:1 30927:1 31760:1 33394:1 35881:1 36758:1 37357:1 38516:1 38593:1 39111:1 39566:1 40430:1 40764:1 42368:1 42665:1 42718:1 42802:1 42913:1 43116:1 43140:1 43190:1 43962:1 45345:1 47173:1 49118:1 51026:1 53499:1 55388:1 57048:1 58224:1 60594:1 62620:1 65104:1 66307:1 66347:1 66375:1 66410:1 66412:1 66467:1 66508:1 66549:1 66689:1 66868:1 67088:1 67151:1 67649:1 68424:1 68707:1 68989:1 69490:1 69880:1 73261:1 74406:1 75270:1 76956:1 79483:1 80398:1 81028:1 85295:1 86274:1 
2200 0 0 240:1 419:1 4264:1 9066:1 10697:1 15104:1 17352:1 21864:1 21866:1 21881:1 21902:1 21903:1 22113:1 22417:1 25998:1 30092:1 30504:1 31760:1 34247:1 35518:1 38516:1 38836:1 39102:1 39596:1 40769:1 42689:1 42718:1 42802:1 42913:1 43097:1 43791:1 45723:1 48827:1 51566:1 55525:1 56651:1 60345:1 63263:1 66301:1 66347:1 66375:1 66410:1 66423:1 66543:1 66686:1 66868:1 67099:1 68344:1 68704:1 68988:1 73560:1 73949:1 75270:1 77809:1 79080:1 89390:1 
188.5860434231571 0 0 419:1 2281:1 4264:1 6001:1 9066:1 9628:1 10242:1 13247:1 15104:1 15855:1 16719:1 20694:1 21826:1 21864:1 21866:1 21868:1 21900:1 21905:1 22417:1 23968:1 25998:1 27665:1 29804:1 30504:1 32186:1 34247:1 36016:1 37353:1 38516:1 38593:1 39111:1 39566:1 40430:1 41096:1 42366:1 42665:1 42718:1 42842:1 42913:1 43116:1 43140:1 43188:1 43791:1 45723:1 47428:1 48827:1 51566:1 55525:1 56651:1 58643:1 60345:1 63263:1 66307:1 66347:1 66394:1 66410:1 66412:1 66467:1 66503:1 66549:1 66689:1 67009:1 67088:1 67151:1 67645:1 67980:1 68424:1 68707:1 69310:1 69490:1 69877:1 71307:1 72315:1 73261:1 73949:1 75684:1 77809:1 79639:1 81026:1 82548:1 84754:1 86750:1 89395:1 
0 717.3240475291125 344.012154229973 328:1 618:1 5118:1 8109:1 9066:1 9628:1 10748:1 11276:1 15104:1 15855:1 17410:1 18119:1 21864:1 21866:1 21902:1 21903:1 22208:1 22995:1 26865:1 29602:1 30190:1 31088:1 31760:1 35114:1 35515:1 38314:1 38516:1 38836:1 39100:1 39596:1 40379:1 40769:1 42270:1 42689:1 42718:1 42802:1 42913:1 43095:1 43173:1 43235:1 44046:1 46122:1 46973:1 48108:1 49233:1 52159:1 53212:1 55293:1 57327:1 58359:1 59393:1 60751:1 62150:1 64357:1 66301:1 66347:1 66375:1 66410:1 66418:1 66466:1 66519:1 66543:1 66686:1 66868:1 67094:1 67211:1 67629:1 68135:1 68341:1 68704:1 68988:1 69550:1 70097:1 72760:1 73656:1 74563:1 75270:1 78676:1 79077:1 81980:1 85453:1 86289:1 90175:1 
658.9895508805251 565.2733045067954 369.1533126776415 6303:1 11721:1 18643:1 21835:1 21866:1 21868:1 21874:1 21883:1 21903:1 21905:1 28330:1 35517:1 36851:1 37357:1 38516:1 39101:1 40385:1 42913:1 43096:1 43140:1 43190:1 45992:1 47241:1 51962:1 53579:1 57538:1 58862:1 64909:1 66410:1 66421:1 66467:1 66508:1 67097:1 67266:1 67649:1 69605:1 70305:1 79078:1 80498:1 81028:1 93600:1 
2200 724.939079153131 0 4568:1 21821:1 21866:1 21881:1 21903:1 26311:1 34560:1 35518:1 38516:1 39102:1 42913:1 43097:1 45860:1 51764:1 57487:1 62388:1 66410:1 66423:1 67099:1 78122:1 79080:1 89657:1 
2200 0 1519.649528824916 135:1 1203:1 2819:1 3660:1 5710:1 8038:1 9012:1 10942:1 12742:1 13027:1 13404:1 15037:1 17640:1 19954:1 20398:1 20918:1 21824:1 21827:1 21829:1 21866:1 22009:1 22719:1 24522:1 25390:1 27418:1 29537:1 29988:1 30802:1 32765:1 33639:1 35764:1 38248:1 38516:1 38717:1 39110:1 39888:1 40418:1 41599:1 42340:1 42681:1 42783:1 42850:1 42913:1 43111:1 43173:1 43235:1 45005:1 45408:1 47398:1 48093:1 50545:1 51140:1 53798:1 56484:1 57262:1 58763:1 59386:1 61640:1 63144:1 65342:1 66303:1 66354:1 66400:1 66410:1 66414:1 66466:1 66524:1 66545:1 66722:1 67034:1 67090:1 67189:1 67632:1 68189:1 68377:1 68740:1 69376:1 69528:1 69987:1 71274:1 73449:1 74275:1 76310:1 77201:1 79338:1 81898:1 83418:1 85162:1 87845:1 
0 1753.050950950265 0 3096:1 21833:1 21866:1 21881:1 21903:1 24795:1 33044:1 35518:1 38523:1 39234:1 43045:1 43097:1 45162:1 50770:1 57714:1 63438:1 66410:1 66423:1 67099:1 76606:1 79080:1 88195:1 
990.7351802531236 0 647.1788961368335 5886:1 6065:1 8286:1 8969:1 14991:1 21827:1 21833:1 21866:1 21868:1 21896:1 21905:1 25792:1 27562:1 27809:1 34041:1 35913:1 36297:1 37353:1 38516:1 38947:1 40104:1 41831:1 42868:1 43116:1 43140:1 43188:1 45601:1 46647:1 46905:1 51408:1 53119:1 56807:1 58037:1 58769:1 62698:1 64838:1 66410:1 66434:1 66467:1 66503:1 67110:1 67367:1 67645:1 67997:1 69706:1 70554:1 71323:1 72383:1 77603:1 79516:1 79914:1 81026:1 92621:1 
1897.361594832092 1231.109361146941 436.827790616362 1804:1 4264:1 6001:1 12648:1 12651:1 13464:1 13921:1 19820:1 20185:1 20958:1 21563:1 21866:1 21868:1 21900:1 21905:1 23610:1 25998:1 27665:1 29804:1 31706:1 34247:1 36016:1 37353:1 38516:1 38593:1 39111:1 39822:1 40430:1 41566:1 42366:1 42665:1 42783:1 42850:1 42913:1 43116:1 43140:1 43188:1 44423:1 44997:1 45723:1 49764:1 50520:1 51566:1 55675:1 56470:1 56651:1 58741:1 60436:1 61703:1 63263:1 66307:1 66346:1 66385:1 66410:1 66412:1 66467:1 66503:1 66549:1 66670:1 66932:1 67088:1 67151:1 67645:1 67985:1 68424:1 68688:1 69131:1 69490:1 69877:1 71312:1 72334:1 73234:1 73261:1 75215:1 77809:1 79639:1 81026:1 82548:1 89395:1 94523:1 
1828.671631066839 733.624233323914 514.5147278161867 328:1 618:1 5250:1 7088:1 8102:1 11276:1 12648:1 12651:1 13921:1 18119:1 19820:1 20185:1 21563:1 21864:1 21866:1 21902:1 21903:1 22208:1 22995:1 26984:1 28563:1 29532:1 30190:1 31088:1 31760:1 35233:1 35515:1 37101:1 38239:1 38516:1 38836:1 39100:1 39596:1 40379:1 40769:1 42270:1 42689:1 42718:1 42802:1 42913:1 43095:1 43173:1 43235:1 44046:1 46162:1 47388:1 48104:1 49233:1 52230:1 54708:1 55293:1 57485:1 58713:1 59117:1 60751:1 62781:1 65675:1 66301:1 66347:1 66375:1 66410:1 66418:1 66472:1 66529:1 66543:1 66686:1 66868:1 67094:1 67217:1 67693:1 68224:1 68341:1 68704:1 68988:1 69556:1 70132:1 71482:1 73060:1 73232:1 73656:1 74563:1 75270:1 78795:1 79077:1 80762:1 81973:1 85453:1 86289:1 90275:1 91161:1 
2200 2200 235.5723591667665 4264:1 5939:1 7686:1 13154:1 20587:1 21866:1 25998:1 27615:1 28616:1 29153:1 34247:1 35966:1 37840:1 38516:1 39111:1 40439:1 42404:1 42913:1 43116:1 43173:1 43235:1 45723:1 47408:1 51566:1 53821:1 56651:1 58509:1 63263:1 66410:1 66428:1 66482:1 66524:1 67104:1 67330:1 67782:1 68182:1 69669:1 70453:1 71789:1 77809:1 79575:1 81468:1 89393:1 
2200 0 0 101:1 1299:1 2597:1 5250:1 7235:1 7861:1 10734:1 11635:1 17388:1 18516:1 21826:1 21829:1 21866:1 21903:1 21972:1 22849:1 24050:1 26984:1 28784:1 29140:1 29952:1 30934:1 32274:1 35233:1 35515:1 37337:1 37828:1 38516:1 38836:1 39100:1 39951:1 40379:1 41329:1 42269:1 42689:1 42783:1 42845:1 42913:1 43095:1 43173:1 43231:1 43369:1 43964:1 46162:1 49120:1 52230:1 55007:1 55455:1 57485:1 60922:1 62781:1 66319:1 66346:1 66371:1 66410:1 66418:1 66450:1 66499:1 66561:1 66680:1 66847:1 67094:1 67202:1 67482:1 67942:1 68527:1 68698:1 68924:1 69541:1 70021:1 70849:1 72169:1 73232:1 73410:1 74412:1 76049:1 78795:1 79077:1 81011:1 81680:1 82906:1 85305:1 87498:1 90275:1 91247:1 94275:1 95363:1 
1959.112339161083 741.3431644502568 245.2359902658806 256:1 3724:1 6001:1 6065:1 8449:1 8969:1 10890:1 13404:1 13465:1 14332:1 14991:1 17580:1 20959:1 21027:1 21866:1 21868:1 21901:1 22130:1 24666:1 25457:1 27665:1 27809:1 28836:1 30111:1 30200:1 32913:1 33706:1 36016:1 36297:1 37515:1 38516:1 38836:1 39111:1 39363:1 40430:1 41378:1 42371:1 42689:1 42699:1 42850:1 42913:1 43116:1 43140:1 43235:1 43511:1 45069:1 45440:1 46905:1 47656:1 48508:1 50658:1 51192:1 53119:1 54092:1 55034:1 56230:1 57549:1 58769:1 59290:1 59802:1 61762:1 62189:1 64838:1 66301:1 66337:1 66368:1 66410:1 66412:1 66467:1 66529:1 66543:1 66618:1 66801:1 67088:1 67151:1 67661:1 68206:1 68337:1 68636:1 68828:1 69490:1 69890:1 71392:1 72996:1 73231:1 73576:1 73665:1 77268:1 79639:1 79914:1 84474:1 88833:1 
2200 1794.376597604015 604.3996645740995 328:1 486:1 2766:1 3362:1 5573:1 7088:1 8194:1 8449:1 9824:1 11634:1 13404:1 13465:1 14332:1 16123:1 20959:1 21027:1 21864:1 21866:1 22208:1 22602:1 24474:1 25080:1 27283:1 28563:1 29684:1 30190:1 30684:1 32716:1 33329:1 35628:1 37100:1 38393:1 38516:1 38836:1 39111:1 39596:1 40439:1 41439:1 42404:1 42689:1 42718:1 42850:1 42913:1 43116:1 43173:1 43235:1 43852:1 44987:1 45302:1 46446:1 47388:1 48166:1 48938:1 50506:1 50975:1 52558:1 55828:1 56183:1 57528:1 57993:1 58713:1 59460:1 60055:1 61719:1 62786:1 64169:1 66301:1 66347:1 66369:1 66410:1 66439:1 66451:1 66534:1 66543:1 66686:1 66822:1 67115:1 67395:1 67525:1 68271:1 68355:1 68704:1 68873:1 69734:1 70657:1 70965:1 73256:1 73656:1 74146:1 76252:1 76891:1 79195:1 80762:1 82086:1 84943:1 93948:1 
2200 774.8830110600627 1487.416174514231 135:1 1114:1 6001:1 7686:1 12601:1 13186:1 19756:1 20627:1 21824:1 21825:1 21866:1 22009:1 22604:1 27665:1 29153:1 29988:1 30686:1 36016:1 37840:1 38523:1 38806:1 39284:1 39719:1 40672:1 41504:1 42649:1 42681:1 42775:1 42850:1 43076:1 43116:1 43173:1 43235:1 44991:1 45902:1 47414:1 51858:1 57258:1 58479:1 65145:1 66303:1 66354:1 66385:1 66410:1 66412:1 66449:1 66524:1 66545:1 66722:1 66937:1 67088:1 67143:1 67477:1 68179:1 68375:1 68740:1 69148:1 69482:1 69848:1 70839:1 72893:1 73449:1 74148:1 79639:1 81468:1 84947:1 
1576.449414365091 0 0 135:1 1729:1 2688:1 4099:1 6989:1 8038:1 11276:1 12194:1 12288:1 18119:1 19213:1 19344:1 21824:1 21829:1 21833:1 21866:1 21903:1 22009:1 23504:1 24392:1 25839:1 28440:1 29537:1 29988:1 31598:1 32631:1 34088:1 35515:1 36964:1 38248:1 38516:1 38717:1 39100:1 39888:1 40379:1 41599:1 42270:1 42681:1 42783:1 42850:1 42913:1 43095:1 43173:1 43235:1 44352:1 44940:1 45622:1 47315:1 48093:1 49672:1 50445:1 51434:1 53675:1 55369:1 56342:1 57219:1 58222:1 59386:1 60644:1 61678:1 63134:1 65067:1 66303:1 66354:1 66385:1 66410:1 66418:1 66485:1 66524:1 66545:1 66722:1 66937:1 67094:1 67228:1 67818:1 68180:1 68380:1 68740:1 69148:1 69567:1 70204:1 71881:1 72916:1 73449:1 75099:1 76158:1 77650:1 79077:1 80612:1 81898:1 83488:1 86014:1 89248:1 
1106.174902720492 0 207.6473202988543 135:1 1114:1 4554:1 6001:1 8109:1 10919:1 12425:1 13266:1 17616:1 19526:1 20713:1 21824:1 21825:1 21866:1 22009:1 22604:1 24196:1 26302:1 27665:1 28636:1 29602:1 29988:1 30686:1 32429:1 34551:1 36016:1 37175:1 38313:1 38516:1 38717:1 39111:1 39670:1 40439:1 41460:1 42404:1 42681:1 42775:1 42850:1 42913:1 43116:1 43173:1 43235:1 44805:1 45856:1 47430:1 48108:1 50286:1 51755:1 56271:1 56693:1 58290:1 59393:1 62240:1 66303:1 66354:1 66385:1 66410:1 66412:1 66482:1 66498:1 66545:1 66722:1 66937:1 67088:1 67160:1 67769:1 67917:1 68375:1 68740:1 69148:1 69499:1 69923:1 71711:1 72088:1 73449:1 74148:1 78113:1 79639:1 81980:1 83531:1 84947:1 89648:1 95759:1 
1975.92906187831 536.6258893989262 120.5510665335406 2377:1 3551:1 7169:1 7915:1 8328:1 8702:1 11944:1 14148:1 14653:1 18912:1 21866:1 21900:1 24063:1 25271:1 27268:1 28685:1 29404:1 29804:1 30300:1 32287:1 33520:1 35613:1 37231:1 38106:1 38516:1 38593:1 39111:1 39822:1 40439:1 41566:1 42404:1 42665:1 42783:1 42850:1 42913:1 43116:1 43173:1 43235:1 44072:1 45381:1 46434:1 47990:1 49261:1 51094:1 52543:1 54551:1 55667:1 57081:1 57969:1 59033:1 61002:1 62666:1 64168:1 65602:1 66307:1 66364:1 66394:1 66410:1 66439:1 66455:1 66513:1 66549:1 66778:1 67019:1 67115:1 67399:1 67557:1 68079:1 68437:1 68796:1 69335:1 69738:1 70676:1 71091:1 72618:1 73232:1 73261:1 74598:1 75791:1 77082:1 80898:1 81747:1 82480:1 
796.4340612518305 0 0 141:1 1371:1 2303:1 3551:1 6752:1 9915:1 11041:1 11129:1 16274:1 17781:1 17910:1 21828:1 21839:1 21866:1 21903:1 22014:1 22943:1 23992:1 25271:1 28040:1 29993:1 31036:1 32211:1 33520:1 35515:1 36535:1 38516:1 38836:1 39100:1 39951:1 40377:1 41651:1 42260:1 42689:1 42783:1 42850:1 42913:1 43095:1 43168:1 43235:1 44020:1 44701:1 45381:1 47981:1 49195:1 50131:1 51094:1 55675:1 56225:1 57081:1 59416:1 60020:1 61277:1 62666:1 65542:1 66319:1 66330:1 66385:1 66410:1 66418:1 66452:1 66513:1 66561:1 66585:1 66922:1 67094:1 67204:1 67532:1 68082:1 68527:1 68603:1 69103:1 69543:1 70058:1 70996:1 72621:1 73232:1 73256:1 73455:1 74512:1 75707:1 77082:1 79077:1 80162:1 83706:1 85405:1 86895:1 88643:1 90926:1 
428.3657127114242 0 0 141:1 2363:1 3551:1 7664:1 8607:1 12845:1 14518:1 20125:1 21826:1 21866:1 21903:1 21904:1 22014:1 24050:1 25271:1 29120:1 29993:1 32274:1 33520:1 35515:1 36020:1 37809:1 38516:1 38836:1 39100:1 39951:1 40360:1 41329:1 42218:1 42689:1 42783:1 42845:1 42913:1 43095:1 43122:1 43235:1 43706:1 45381:1 47812:1 48719:1 51094:1 54325:1 55681:1 57081:1 59314:1 60266:1 62666:1 66012:1 66319:1 66346:1 66371:1 66410:1 66418:1 66458:1 66519:1 66561:1 66680:1 66847:1 67094:1 67208:1 67593:1 68527:1 68698:1 68924:1 69547:1 70082:1 73232:1 73455:1 75775:1 77082:1 79077:1 79643:1 81439:1 83706:1 88643:1 90779:1 
981.5218490647594 0 0 141:1 3551:1 7434:1 8468:1 9852:1 12115:1 14358:1 16160:1 19113:1 21866:1 21903:1 21904:1 22014:1 23969:1 25271:1 28840:1 29993:1 32187:1 33520:1 35511:1 36024:1 37517:1 38516:1 38836:1 39096:1 39951:1 40332:1 41651:1 42170:1 42689:1 42783:1 42850:1 42913:1 43091:1 43126:1 43235:1 43859:1 44694:1 45381:1 47660:1 48947:1 50115:1 51094:1 54097:1 55609:1 56323:1 57081:1 59145:1 60817:1 61367:1 62666:1 66086:1 66319:1 66359:1 66400:1 66410:1 66420:1 66456:1 66529:1 66561:1 66757:1 67035:1 67096:1 67243:1 67574:1 68214:1 68529:1 68775:1 69380:1 69582:1 70254:1 71159:1 73232:1 73455:1 77082:1 79073:1 79647:1 81158:1 83706:1 88642:1 90517:1 
2200 1454.912545197384 488.1836102264862 279:1 4917:1 5617:1 6867:1 7551:1 9108:1 15152:1 21864:1 21866:1 22154:1 26652:1 27327:1 28189:1 28983:1 30136:1 34901:1 35673:1 36705:1 37667:1 38516:1 38836:1 39111:1 40439:1 42404:1 42689:1 42774:1 42913:1 43116:1 43173:1 43235:1 43524:1 43659:1 46007:1 46484:1 47151:1 47762:1 48648:1 51994:1 52601:1 54232:1 55130:1 55272:1 57153:1 57956:1 58466:1 59357:1 60748:1 62465:1 64005:1 65629:1 66317:1 66354:1 66410:1 66439:1 66474:1 66498:1 66559:1 66729:1 67115:1 67409:1 67699:1 67920:1 68513:1 68747:1 69748:1 70698:1 71503:1 73600:1 78463:1 79240:1 80343:1 81308:1 84245:1 93289:1 94819:1 
2200 0 0 113:1 1045:1 3551:1 5886:1 7007:1 7616:1 9436:1 10419:1 10431:1 12455:1 15557:1 16965:1 16984:1 19559:1 21824:1 21827:1 21829:1 21839:1 21866:1 21987:1 22503:1 24106:1 25271:1 27562:1 28475:1 29070:1 29966:1 30587:1 32335:1 33520:1 35913:1 37001:1 37758:1 38516:1 38678:1 39111:1 39856:1 40439:1 41583:1 42401:1 42680:1 42783:1 42850:1 42913:1 43116:1 43173:1 43230:1 43833:1 44754:1 45381:1 46647:1 47344:1 48888:1 50215:1 51094:1 53705:1 55518:1 57081:1 58037:1 58766:1 60129:1 62666:1 64428:1 66319:1 66330:1 66385:1 66410:1 66434:1 66466:1 66524:1 66561:1 66585:1 66922:1 67110:1 67366:1 67632:1 68180:1 68543:1 68603:1 69103:1 69705:1 70548:1 71273:1 72904:1 73232:1 73251:1 73424:1 74045:1 77082:1 79516:1 80649:1 81387:1 83010:1 84845:1 88653:1 91938:1 93751:1 
2200 433.8672440857002 0 36:1 2738:1 3796:1 5939:1 7398:1 8286:1 8343:1 9852:1 12401:1 14164:1 16158:1 19499:1 21826:1 21833:1 21847:1 21866:1 21896:1 21906:1 22228:1 24442:1 25551:1 27615:1 28800:1 29888:1 32680:1 33800:1 35966:1 37478:1 38516:1 38823:1 38947:1 39944:1 40109:1 41646:1 41853:1 42689:1 42783:1 42850:1 42868:1 43116:1 43173:1 43235:1 43667:1 44976:1 45496:1 47061:1 48657:1 50485:1 51255:1 53340:1 55411:1 56066:1 56955:1 58771:1 60213:1 61712:1 62440:1 64429:1 66319:1 66359:1 66394:1 66410:1 66428:1 66482:1 66524:1 66561:1 66757:1 67017:1 67104:1 67330:1 67782:1 68174:1 68537:1 68775:1 69333:1 69669:1 70453:1 71782:1 72862:1 73342:1 76217:1 77362:1 79575:1 81120:1 82800:1 94653:1 
0 0 17.15280928826539 141:1 942:1 1913:1 5242:1 5670:1 8190:1 8770:1 13497:1 14750:1 21008:1 21826:1 21827:1 21865:1 21866:1 22014:1 22341:1 24050:1 26976:1 27381:1 29707:1 29993:1 30429:1 32274:1 35225:1 35728:1 36120:1 38419:1 38523:1 38842:1 39030:1 39955:1 40249:1 41333:1 42054:1 42689:1 42783:1 42845:1 42922:1 43109:1 43173:1 43235:1 43739:1 46157:1 46983:1 48165:1 48765:1 52225:1 53230:1 54812:1 55338:1 57368:1 58836:1 59126:1 60591:1 62512:1 64442:1 65498:1 66319:1 66346:1 66371:1 66410:1 66434:1 66493:1 66513:1 66561:1 66680:1 66847:1 67110:1 67379:1 67870:1 68079:1 68543:1 68698:1 68924:1 69718:1 70599:1 71965:1 72605:1 73256:1 73455:1 73868:1 75775:1 78787:1 79296:1 80067:1 82082:1 83799:1 84679:1 86956:1 91535:1 92765:1 
0 85.27201492709605 0 113:1 1000:1 2597:1 5242:1 8190:1 9159:1 12314:1 13444:1 13497:1 15210:1 19385:1 20924:1 21008:1 21824:1 21826:1 21866:1 21903:1 21987:1 22440:1 24050:1 26976:1 29707:1 29966:1 30525:1 32274:1 35225:1 35515:1 36120:1 38419:1 38523:1 38681:1 39024:1 39859:1 40230:1 41308:1 42023:1 42680:1 42783:1 42845:1 42922:1 43095:1 43173:1 43235:1 43800:1 46157:1 46983:1 48165:1 48842:1 52225:1 53230:1 54812:1 55858:1 57368:1 58836:1 59126:1 60463:1 62512:1 64442:1 65498:1 66319:1 66346:1 66371:1 66410:1 66418:1 66493:1 66513:1 66561:1 66680:1 66847:1 67094:1 67232:1 67870:1 68061:1 68527:1 68698:1 68924:1 69571:1 70220:1 71958:1 72534:1 73256:1 73424:1 73972:1 76049:1 78787:1 79077:1 80067:1 82082:1 83262:1 84774:1 87442:1 90264:1 92765:1 
455.2345702771459 0 0 113:1 1514:1 2363:1 3880:1 6850:1 9782:1 10942:1 12223:1 17654:1 19257:1 21824:1 21826:1 21866:1 21903:1 21987:1 23191:1 24050:1 25616:1 28176:1 29058:1 29966:1 31291:1 32274:1 33865:1 35515:1 36684:1 38516:1 38678:1 39100:1 39856:1 40379:1 41306:1 42270:1 42680:1 42783:1 42845:1 42913:1 43095:1 43173:1 43235:1 44189:1 45534:1 47131:1 47773:1 49414:1 51313:1 53440:1 55848:1 56738:1 58307:1 59434:1 60310:1 63217:1 64343:1 65732:1 66319:1 66346:1 66371:1 66410:1 66418:1 66477:1 66532:1 66561:1 66680:1 66847:1 67094:1 67222:1 67754:1 68257:1 68527:1 68698:1 68924:1 69561:1 70177:1 71691:1 73135:1 73424:1 74780:1 75775:1 77427:1 79077:1 80319:1 83058:1 85688:1 87081:1 88992:1 
327.5197686900073 416.8370461869152 130.6320477098481 644:1 2281:1 3547:1 6229:1 8268:1 9562:1 9565:1 11263:1 11539:1 15755:1 15759:1 18103:1 18405:1 21826:1 21864:1 21866:1 21868:1 21900:1 21903:1 23040:1 23968:1 25266:1 28235:1 29789:1 29804:1 31135:1 32186:1 33515:1 35515:1 36754:1 38505:1 38516:1 38593:1 39100:1 39566:1 40365:1 41096:1 42246:1 42665:1 42718:1 42842:1 42913:1 43095:1 43140:1 43235:1 44082:1 45380:1 47170:1 49271:1 51089:1 53496:1 55727:1 57292:1 58716:1 60888:1 62501:1 64830:1 66307:1 66347:1 66394:1 66410:1 66418:1 66467:1 66497:1 66549:1 66689:1 67009:1 67094:1 67212:1 67640:1 67906:1 68425:1 68707:1 69310:1 69551:1 70101:1 71288:1 72057:1 73261:1 74612:1 75684:1 77077:1 79077:1 80394:1 82177:1 88632:1 
1441.924898184528 386.2231965563594 329.2088868321945 446:1 4256:1 6001:1 9304:1 9565:1 11539:1 15395:1 15759:1 18405:1 21864:1 21866:1 21868:1 21900:1 21902:1 21905:1 22475:1 25988:1 27665:1 29804:1 30560:1 31760:1 34237:1 36016:1 37353:1 38516:1 38593:1 39111:1 39566:1 40430:1 40764:1 42366:1 42665:1 42718:1 42802:1 42913:1 43116:1 43140:1 43188:1 43815:1 45715:1 46973:1 48864:1 51556:1 53210:1 55666:1 57453:1 58619:1 60258:1 62777:1 66307:1 66347:1 66375:1 66410:1 66412:1 66467:1 66503:1 66549:1 66689:1 66868:1 67088:1 67151:1 67645:1 67974:1 68424:1 68707:1 68989:1 69490:1 69877:1 71301:1 73261:1 74012:1 75270:1 77799:1 79639:1 81026:1 84809:1 89379:1 94511:1 
2200 825.8835831190947 153.3344859422302 328:1 612:1 7022:1 7551:1 8449:1 9304:1 11263:1 14333:1 15395:1 18103:1 21864:1 21866:1 21902:1 21903:1 22208:1 22988:1 28496:1 28983:1 30190:1 31081:1 31760:1 35515:1 37025:1 37667:1 38516:1 38836:1 39100:1 39596:1 40379:1 40769:1 42270:1 42689:1 42718:1 42802:1 42913:1 43095:1 43173:1 43235:1 44039:1 45408:1 47353:1 47762:1 49226:1 51138:1 53720:1 54232:1 55758:1 57290:1 58406:1 59357:1 60449:1 65074:1 65629:1 66301:1 66347:1 66375:1 66410:1 66418:1 66450:1 66498:1 66543:1 66686:1 66868:1 67094:1 67202:1 67481:1 67933:1 68341:1 68704:1 68988:1 69541:1 70020:1 70847:1 73656:1 74555:1 75270:1 79077:1 80675:1 81308:1 85446:1 91131:1 
0 0 128.447931296007 212:1 1114:1 2240:1 3337:1 8449:1 9562:1 14333:1 15754:1 21824:1 21825:1 21833:1 21866:1 21904:1 21905:1 22009:1 22604:1 23909:1 25046:1 29988:1 30686:1 32128:1 33295:1 36020:1 37353:1 38516:1 38717:1 39111:1 39670:1 40421:1 41460:1 42341:1 42681:1 42775:1 42850:1 42913:1 43116:1 43122:1 43188:1 43470:1 44670:1 45291:1 46517:1 50076:1 50954:1 52654:1 55087:1 56129:1 57283:1 58117:1 61466:1 62132:1 66303:1 66354:1 66385:1 66410:1 66432:1 66458:1 66503:1 66545:1 66722:1 66937:1 67108:1 67588:1 67991:1 68392:1 68740:1 69148:1 71183:1 72361:1 73531:1 74148:1 75631:1 76857:1 79643:1 81026:1 84149:1 84954:1 86680:1 92243:1 94410:1 
221.7652827029244 0 0 141:1 2363:1 5479:1 5736:1 7993:1 8885:1 9900:1 10426:1 10726:1 11668:1 14894:1 16250:1 17017:1 17380:1 18551:1 21821:1 21826:1 21829:1 21845:1 21864:1 21866:1 22014:1 24050:1 27227:1 27432:1 29495:1 29993:1 32274:1 35476:1 35777:1 38198:1 38516:1 38836:1 39111:1 39623:1 40439:1 41245:1 42404:1 42689:1 42743:1 42845:1 42913:1 43116:1 43173:1 43235:1 43864:1 46325:1 46537:1 47228:1 48073:1 48955:1 52421:1 52685:1 53562:1 54633:1 55289:1 57625:1 58098:1 58833:1 59050:1 60910:1 62641:1 64193:1 65226:1 66043:1 66319:1 66347:1 66371:1 66410:1 66435:1 66449:1 66524:1 66561:1 66698:1 66848:1 67111:1 67381:1 67477:1 68189:1 68544:1 68716:1 68935:1 69720:1 70603:1 70841:1 72945:1 73455:1 75775:1 79038:1 79364:1 81845:1 83810:1 
0 364.0536607505248 0 5105:1 10179:1 16634:1 21866:1 21889:1 21903:1 21905:1 26849:1 35098:1 35515:1 36149:1 37351:1 38516:1 39100:1 40363:1 42225:1 42913:1 43095:1 43133:1 43186:1 46111:1 46760:1 52146:1 52957:1 57363:1 58583:1 63382:1 64334:1 66410:1 66418:1 66492:1 66509:1 67094:1 67231:1 67859:1 68032:1 69570:1 70216:1 71936:1 72451:1 78660:1 79077:1 79725:1 81024:1 90165:1 90785:1 92420:1 94329:1 
1837.809975677553 601.1476032324309 573.577801062968 135:1 875:1 2154:1 5664:1 9087:1 10353:1 11208:1 15126:1 16876:1 21824:1 21866:1 22009:1 22217:1 23816:1 27375:1 28225:1 29988:1 30308:1 32034:1 35723:1 36745:1 38523:1 38806:1 39284:1 39935:1 40672:1 41638:1 42649:1 42681:1 42783:1 42850:1 43076:1 43116:1 43173:1 43235:1 44637:1 46124:1 46502:1 47167:1 47839:1 50013:1 52162:1 52629:1 53492:1 54365:1 56049:1 57572:1 58003:1 58636:1 59376:1 61260:1 62192:1 63891:1 64651:1 66303:1 66354:1 66402:1 66410:1 66413:1 66482:1 66531:1 66545:1 66722:1 67047:1 67089:1 67183:1 67785:1 68240:1 68376:1 68740:1 69393:1 69522:1 71803:1 73093:1 73449:1 73756:1 75529:1 79290:1 84573:1 
0 316.6356685504638 0 113:1 2363:1 5664:1 6064:1 7866:1 8959:1 9777:1 12088:1 12711:1 14981:1 16057:1 19122:1 19910:1 21824:1 21826:1 21855:1 21866:1 21868:1 21987:1 22591:1 24050:1 27375:1 27806:1 29351:1 29966:1 30673:1 32274:1 35723:1 36294:1 38047:1 38516:1 38678:1 39111:1 39856:1 40430:1 41306:1 42371:1 42680:1 42783:1 42845:1 42913:1 43116:1 43140:1 43235:1 43841:1 45710:1 46502:1 46901:1 48926:1 51552:1 52629:1 53118:1 55862:1 57276:1 58003:1 58273:1 60843:1 63148:1 63891:1 64464:1 66319:1 66346:1 66371:1 66410:1 66413:1 66467:1 66518:1 66561:1 66680:1 66847:1 67089:1 67176:1 67655:1 68126:1 68522:1 68698:1 68924:1 69515:1 71375:1 72742:1 73424:1 75775:1 79290:1 79911:1 81685:1 
930.445089164606 0 69.23226505542998 113:1 1168:1 3048:1 5119:1 5965:1 7616:1 10072:1 10130:1 12365:1 13538:1 16508:1 16575:1 19458:1 21060:1 21824:1 21829:1 21866:1 21889:1 21987:1 22663:1 24777:1 26867:1 27635:1 29070:1 29966:1 30746:1 33026:1 35116:1 35987:1 37758:1 38516:1 38678:1 39111:1 39856:1 40427:1 41583:1 42356:1 42680:1 42783:1 42850:1 42913:1 43116:1 43133:1 43230:1 43879:1 46123:1 46693:1 48988:1 52160:1 52874:1 55826:1 57560:1 58057:1 58613:1 60456:1 63677:1 63986:1 65030:1 66319:1 66346:1 66369:1 66410:1 66439:1 66494:1 66524:1 66561:1 66680:1 66821:1 67115:1 67419:1 67875:1 68179:1 68546:1 68698:1 68872:1 69758:1 70743:1 71980:1 72887:1 73424:1 74213:1 76585:1 78678:1 79602:1 81387:1 83239:1 94895:1 
523.8591120902316 0 0 113:1 1557:1 2795:1 5457:1 7235:1 10705:1 12455:1 17360:1 19559:1 21824:1 21826:1 21833:1 21866:1 21869:1 21903:1 21987:1 23257:1 24498:1 27205:1 28784:1 29966:1 31359:1 32742:1 35454:1 35515:1 37337:1 38525:1 38694:1 39177:1 39870:1 40551:1 41592:1 42531:1 42680:1 42783:1 42850:1 42998:1 43095:1 43173:1 43206:1 44231:1 45002:1 46308:1 47937:1 49468:1 52398:1 54499:1 55812:1 56401:1 56914:1 59048:1 60048:1 63317:1 66281:1 66319:1 66346:1 66394:1 66410:1 66418:1 66450:1 66514:1 66561:1 66680:1 67008:1 67094:1 67202:1 67489:1 68093:1 68527:1 68698:1 69304:1 69541:1 70027:1 70862:1 72672:1 73424:1 74848:1 76282:1 79016:1 79077:1 81011:1 83302:1 85754:1 87820:1 90469:1 91247:1 
0 150.9076026795144 337.0452963791301 113:1 2737:1 3780:1 6001:1 7186:1 8155:1 10273:1 13995:1 21665:1 21824:1 21833:1 21866:1 21987:1 24437:1 25517:1 27665:1 28709:1 29672:1 29966:1 30265:1 32674:1 33766:1 36016:1 37256:1 38380:1 38523:1 38681:1 39032:1 39859:1 40265:1 41585:1 42102:1 42680:1 42783:1 42850:1 42922:1 43116:1 43173:1 43235:1 43841:1 44970:1 45472:1 47480:1 48927:1 50479:1 51231:1 53905:1 55875:1 56435:1 57112:1 58523:1 60065:1 61868:1 63065:1 64471:1 66319:1 66365:1 66373:1 66410:1 66412:1 66474:1 66515:1 66561:1 66790:1 67088:1 67156:1 67707:1 68117:1 68521:1 68808:1 69495:1 71524:1 72733:1 73424:1 74135:1 76213:1 77328:1 79639:1 80923:1 82039:1 83043:1 88863:1 92230:1 94141:1 
1232.85857672252 742.1745890954974 162.9075977791838 113:1 1730:1 2801:1 3780:1 6277:1 11482:1 12689:1 13487:1 18341:1 19878:1 20993:1 21824:1 21833:1 21845:1 21855:1 21866:1 21868:1 21903:1 21905:1 21987:1 23505:1 24504:1 25517:1 28293:1 29966:1 31599:1 32748:1 33766:1 35515:1 36812:1 37353:1 38523:1 38681:1 39024:1 39859:1 40221:1 41585:1 41995:1 42680:1 42783:1 42850:1 42922:1 43095:1 43145:1 43188:1 44353:1 45002:1 45472:1 47201:1 49673:1 50534:1 51231:1 53530:1 55847:1 56548:1 57112:1 58662:1 60462:1 61230:1 63065:1 64941:1 66319:1 66330:1 66385:1 66410:1 66418:1 66467:1 66503:1 66561:1 66585:1 66922:1 67094:1 67212:1 67645:1 67989:1 68527:1 68603:1 69103:1 69551:1 70102:1 71316:1 72345:1 73251:1 73252:1 73424:1 75100:1 76288:1 77328:1 79077:1 80453:1 81026:1 83043:1 86017:1 87826:1 91055:1 93390:1 94403:1 
840.3613375969867 645.0646713382899 556.9872863292582 113:1 1698:1 2363:1 3336:1 11995:1 13256:1 18971:1 20702:1 21821:1 21824:1 21826:1 21866:1 21881:1 21903:1 21987:1 23452:1 24050:1 25045:1 29966:1 31545:1 32274:1 33294:1 35518:1 38516:1 38678:1 39102:1 39856:1 41306:1 42680:1 42783:1 42845:1 42913:1 43097:1 44322:1 45289:1 49625:1 50952:1 55629:1 56835:1 60429:1 62616:1 66319:1 66346:1 66371:1 66410:1 66423:1 66561:1 66680:1 66847:1 67099:1 68532:1 68698:1 68924:1 73424:1 75047:1 75775:1 76856:1 79080:1 85962:1 87125:1 
0 126.1158347517259 0 36:1 1157:1 2924:1 4580:1 8488:1 10041:1 14381:1 16455:1 21833:1 21866:1 21881:1 21903:1 21906:1 22656:1 24640:1 26323:1 29888:1 30736:1 32886:1 34572:1 35518:1 38516:1 38836:1 39102:1 39951:1 41651:1 42689:1 42783:1 42850:1 42913:1 43097:1 43877:1 45867:1 48982:1 51778:1 55496:1 57072:1 60416:1 63062:1 66319:1 66358:1 66387:1 66410:1 66423:1 66561:1 66747:1 66965:1 67099:1 68532:1 68765:1 69226:1 73342:1 74202:1 76435:1 78134:1 79080:1 82819:1 87983:1 89676:1 
146.9184827753932 0 148.6499928402006 135:1 1114:1 2974:1 4554:1 7088:1 9611:1 9869:1 13579:1 15825:1 16195:1 21124:1 21824:1 21825:1 21866:1 21903:1 22009:1 22604:1 24691:1 26302:1 28563:1 29023:1 29988:1 30686:1 32939:1 34551:1 35515:1 37101:1 37708:1 38516:1 38717:1 39100:1 39670:1 40379:1 41460:1 42270:1 42681:1 42775:1 42850:1 42913:1 43095:1 43173:1 43235:1 45083:1 45856:1 47388:1 47763:1 51755:1 54242:1 56478:1 56693:1 58713:1 59464:1 62240:1 65861:1 66303:1 66354:1 66385:1 66410:1 66418:1 66472:1 66529:1 66545:1 66722:1 66937:1 67094:1 67217:1 67693:1 68220:1 68380:1 68740:1 69148:1 69556:1 70132:1 71480:1 73046:1 73449:1 74148:1 76491:1 78113:1 79077:1 80762:1 83531:1 84947:1 88063:1 89643:1 91161:1 
1462.480153330267 0 0 135:1 1352:1 2281:1 4554:1 9669:1 10966:1 12515:1 15913:1 17687:1 19642:1 21824:1 21826:1 21866:1 21881:1 21903:1 22009:1 22918:1 23968:1 26302:1 29988:1 31008:1 32186:1 34551:1 35518:1 38516:1 38717:1 39102:1 39888:1 41150:1 42681:1 42783:1 42842:1 42913:1 43097:1 44003:1 45856:1 49173:1 51755:1 55386:1 56693:1 60204:1 62240:1 66303:1 66346:1 66394:1 66410:1 66423:1 66545:1 66669:1 67008:1 67099:1 68384:1 68687:1 69297:1 73449:1 74487:1 75684:1 78113:1 79080:1 83531:1 86799:1 89644:1 
1201.426323162209 589.9760053635885 0 135:1 1064:1 2566:1 4554:1 6001:1 8173:1 10734:1 11222:1 12187:1 13404:1 17388:1 17411:1 18048:1 19203:1 21824:1 21866:1 21904:1 22009:1 22531:1 24263:1 26302:1 27665:1 29692:1 29988:1 30617:1 32498:1 34551:1 36016:1 36024:1 38404:1 38516:1 38717:1 39111:1 39888:1 40423:1 41599:1 42349:1 42681:1 42783:1 42850:1 42913:1 43116:1 43126:1 43235:1 43834:1 44842:1 45856:1 50335:1 51755:1 55395:1 56328:1 56693:1 61670:1 62240:1 66303:1 66354:1 66368:1 66410:1 66412:1 66456:1 66498:1 66545:1 66722:1 66809:1 67088:1 67148:1 67560:1 67937:1 68375:1 68740:1 68852:1 69487:1 69865:1 73252:1 73449:1 74076:1 76010:1 78113:1 79639:1 79647:1 82063:1 83531:1 84877:1 89648:1 92117:1 92341:1 95867:1 
24.45308476460674 0 0 135:1 1114:1 2922:1 4554:1 6757:1 7861:1 10200:1 11279:1 11766:1 13282:1 16668:1 18122:1 18693:1 20734:1 21824:1 21825:1 21829:1 21866:1 21903:1 22009:1 22604:1 24636:1 26302:1 28050:1 29140:1 29988:1 30686:1 32881:1 34551:1 35513:1 36544:1 37828:1 38516:1 38717:1 39098:1 39670:1 40348:1 41460:1 42194:1 42681:1 42775:1 42850:1 42913:1 43093:1 43173:1 43231:1 45051:1 45856:1 50629:1 51755:1 56297:1 56693:1 61176:1 62240:1 66303:1 66354:1 66400:1 66410:1 66424:1 66476:1 66499:1 66545:1 66722:1 67034:1 67100:1 67279:1 67729:1 67942:1 68385:1 68740:1 69376:1 69618:1 70336:1 71572:1 72169:1 73449:1 74148:1 76432:1 78113:1 79075:1 80171:1 81680:1 83531:1 84947:1 89642:1 90627:1 93075:1 
1563.765702633787 0 0 113:1 1517:1 2363:1 4264:1 6752:1 7295:1 10200:1 11279:1 11580:1 11750:1 12230:1 16668:1 18122:1 18453:1 18672:1 19264:1 21824:1 21826:1 21828:1 21850:1 21866:1 21869:1 21903:1 21987:1 23194:1 24050:1 25998:1 28040:1 29139:1 29966:1 31294:1 32274:1 34247:1 35515:1 36535:1 37827:1 38516:1 38678:1 39100:1 39856:1 40377:1 41306:1 42258:1 42680:1 42783:1 42845:1 42913:1 43095:1 43168:1 43203:1 44189:1 45723:1 47823:1 49417:1 51566:1 54339:1 55812:1 56651:1 59238:1 60697:1 63263:1 65625:1 66319:1 66346:1 66371:1 66410:1 66418:1 66452:1 66514:1 66561:1 66680:1 66847:1 67094:1 67204:1 67533:1 68087:1 68527:1 68698:1 68924:1 69543:1 70059:1 71000:1 72646:1 73249:1 73424:1 74783:1 75775:1 77809:1 79077:1 80162:1 81457:1 83116:1 85692:1 87083:1 89389:1 90926:1 92948:1 
449.8635874029729 0 0 135:1 1114:1 2974:1 4554:1 6757:1 8000:1 9394:1 12462:1 13579:1 15499:1 19578:1 21124:1 21824:1 21825:1 21866:1 21903:1 22009:1 22604:1 24691:1 26302:1 28050:1 29501:1 29988:1 30686:1 32939:1 34551:1 35515:1 36544:1 38206:1 38516:1 38717:1 39100:1 39670:1 40379:1 41460:1 42270:1 42681:1 42775:1 42850:1 42913:1 43095:1 43173:1 43235:1 45083:1 45856:1 48073:1 51755:1 54637:1 56478:1 56693:1 59258:1 62240:1 66243:1 66303:1 66354:1 66385:1 66410:1 66418:1 66476:1 66513:1 66545:1 66722:1 66937:1 67094:1 67221:1 67734:1 68079:1 68380:1 68740:1 69148:1 69560:1 70162:1 71602:1 72610:1 73449:1 74148:1 76491:1 78113:1 79077:1 80171:1 81854:1 83531:1 84947:1 88063:1 89643:1 90931:1 93081:1 
983.3158358433934 0 0 135:1 1114:1 2913:1 4554:1 5848:1 7177:1 7677:1 10635:1 13153:1 13576:1 17261:1 20583:1 21117:1 21824:1 21825:1 21829:1 21866:1 22009:1 22604:1 24623:1 26302:1 27527:1 28696:1 29140:1 29988:1 30686:1 32870:1 34551:1 35876:1 37244:1 37828:1 38516:1 38717:1 39111:1 39670:1 40439:1 41460:1 42402:1 42681:1 42775:1 42850:1 42913:1 43116:1 43173:1 43231:1 45038:1 45856:1 47470:1 50617:1 51755:1 53893:1 56045:1 56693:1 58663:1 61733:1 62240:1 65087:1 66303:1 66354:1 66385:1 66410:1 66433:1 66482:1 66499:1 66545:1 66722:1 66937:1 67109:1 67354:1 67770:1 67942:1 68393:1 68740:1 69148:1 69693:1 70506:1 71733:1 72169:1 73449:1 74148:1 76419:1 78113:1 79478:1 80911:1 81458:1 83531:1 84947:1 87967:1 89646:1 95038:1 
895.1621647459078 65.32241987407795 0 113:1 1504:1 2084:1 4618:1 7137:1 10294:1 11444:1 12176:1 18371:1 19191:1 21824:1 21866:1 21903:1 21987:1 23176:1 23721:1 26362:1 28652:1 29160:1 29966:1 31277:1 31938:1 34611:1 35515:1 37190:1 37847:1 38516:1 38678:1 39100:1 39856:1 40379:1 41583:1 42270:1 42680:1 42783:1 42850:1 42913:1 43095:1 43173:1 43235:1 44176:1 44568:1 45869:1 47835:1 49402:1 49929:1 51795:1 54358:1 55595:1 56100:1 56825:1 59472:1 59989:1 61580:1 62427:1 66319:1 66330:1 66373:1 66410:1 66418:1 66468:1 66529:1 66561:1 66585:1 66857:1 67094:1 67213:1 67668:1 68220:1 68527:1 68603:1 68956:1 69552:1 70113:1 71416:1 73040:1 73424:1 74766:1 75432:1 78173:1 79077:1 80854:1 83167:1 85674:1 89705:1 91189:1 
0 0 365.9428213055967 113:1 2363:1 3538:1 5768:1 7809:1 10942:1 11471:1 11507:1 12923:1 17638:1 18320:1 18365:1 20237:1 21824:1 21826:1 21864:1 21866:1 21885:1 21987:1 24050:1 25254:1 27465:1 29281:1 29966:1 32274:1 33503:1 35808:1 37976:1 38516:1 38678:1 39111:1 40439:1 42404:1 42680:1 42845:1 42913:1 43116:1 43173:1 43235:1 44076:1 45377:1 47908:1 49266:1 51081:1 55690:1 57705:1 58222:1 59202:1 60826:1 62570:1 64712:1 66319:1 66347:1 66371:1 66410:1 66435:1 66485:1 66522:1 66561:1 66698:1 66848:1 67111:1 67386:1 67817:1 68156:1 68544:1 68716:1 68935:1 69725:1 70625:1 71874:1 72820:1 73424:1 75775:1 77065:1 79396:1 81613:1 83006:1 88626:1 95249:1 
0 0 585.9274919288305 205:1 1114:1 2549:1 7235:1 7866:1 11170:1 13199:1 17973:1 20643:1 21824:1 21825:1 21866:1 21903:1 22009:1 22604:1 24245:1 28784:1 29351:1 29988:1 30686:1 32482:1 35515:1 37337:1 38047:1 38525:1 38814:1 39295:1 39724:1 40680:1 41509:1 42658:1 42681:1 42775:1 42850:1 43085:1 43095:1 43173:1 43235:1 44840:1 46028:1 50331:1 52030:1 56342:1 56923:1 61678:1 62252:1 66303:1 66354:1 66385:1 66410:1 66418:1 66450:1 66518:1 66545:1 66722:1 66937:1 67094:1 67202:1 67491:1 68126:1 68380:1 68740:1 69148:1 69541:1 70029:1 70867:1 73524:1 74148:1 75992:1 79077:1 81011:1 81685:1 84950:1 87380:1 91247:1 
1385.202517794881 1979.447156435724 1594.042494421816 215:1 1420:1 5768:1 7153:1 7861:1 10942:1 11764:1 13404:1 17638:1 18689:1 20918:1 21825:1 21829:1 21866:1 22088:1 22700:1 27465:1 28661:1 29140:1 30784:1 31882:1 35808:1 37204:1 37828:1 38523:1 38882:1 39284:1 39778:1 40672:1 41542:1 42689:1 42778:1 42850:1 43076:1 43116:1 43173:1 43231:1 43473:1 45135:1 46130:1 47452:1 48468:1 50744:1 52171:1 53867:1 55041:1 56342:1 56821:1 58483:1 59750:1 61777:1 62042:1 65208:1 66315:1 66333:1 66408:1 66410:1 66435:1 66490:1 66499:1 66557:1 66606:1 67070:1 67111:1 67387:1 67853:1 67942:1 68505:1 68624:1 69427:1 69726:1 70630:1 71930:1 72169:1 73229:1 73255:1 73534:1 74614:1 79396:1 80874:1 81680:1 85525:1 91773:1 
3.422795437525505 263.6078541433757 0 113:1 1913:1 3998:1 5875:1 6867:1 8109:1 11969:1 12570:1 18944:1 19716:1 21824:1 21826:1 21845:1 21864:1 21865:1 21866:1 21987:1 24050:1 25731:1 27555:1 28189:1 29602:1 29966:1 32274:1 33980:1 35905:1 36705:1 38313:1 38516:1 38678:1 39111:1 39539:1 40439:1 41204:1 42404:1 42680:1 42727:1 42845:1 42913:1 43116:1 43173:1 43235:1 43987:1 45580:1 46639:1 47151:1 48108:1 49153:1 51381:1 52797:1 55481:1 57119:1 58090:1 58466:1 59393:1 60217:1 62593:1 64050:1 66319:1 66347:1 66371:1 66410:1 66439:1 66474:1 66498:1 66561:1 66698:1 66848:1 67115:1 67409:1 67699:1 67920:1 68546:1 68716:1 68935:1 69748:1 70698:1 71503:1 72096:1 73424:1 75775:1 77542:1 79505:1 80343:1 81980:1 83076:1 93296:1 
1279.946895179614 848.1610812060517 774.4638683109411 113:1 1360:1 2597:1 3998:1 10999:1 12010:1 17728:1 18992:1 21824:1 21826:1 21866:1 21881:1 21903:1 21987:1 22928:1 24050:1 25731:1 29966:1 31018:1 32274:1 33980:1 35518:1 38516:1 38678:1 39102:1 39856:1 41306:1 42680:1 42783:1 42845:1 42913:1 43097:1 44010:1 45580:1 49183:1 51381:1 55784:1 57119:1 60691:1 62593:1 66319:1 66346:1 66371:1 66410:1 66423:1 66561:1 66680:1 66847:1 67099:1 68532:1 68698:1 68924:1 73424:1 74498:1 76049:1 77542:1 79080:1 83076:1 85382:1 87505:1 
0 525.8797852427423 0 5280:1 5639:1 7215:1 8428:1 9876:1 10098:1 10655:1 12200:1 14301:1 16212:1 16537:1 17298:1 19225:1 21833:1 21865:1 21866:1 21901:1 21991:1 27023:1 27349:1 28746:1 30200:1 35272:1 35696:1 37299:1 38516:1 38836:1 39111:1 39363:1 40439:1 40963:1 42404:1 42689:1 42699:1 42818:1 42913:1 43116:1 43173:1 43235:1 43380:1 44718:1 46195:1 46498:1 47509:1 47654:1 48370:1 50167:1 52271:1 54089:1 54989:1 57707:1 57891:1 58874:1 59099:1 63519:1 65948:1 66324:1 66337:1 66386:1 66410:1 66434:1 66454:1 66513:1 66566:1 66947:1 67110:1 67362:1 67548:1 68079:1 68578:1 69701:1 70531:1 71073:1 72611:1 73665:1 78834:1 79264:1 80968:1 91491:1 
1772.476138633343 0 0 3724:1 10179:1 16634:1 21866:1 21889:1 21903:1 21905:1 25457:1 33706:1 35515:1 36149:1 37351:1 38516:1 39100:1 40363:1 42225:1 42913:1 43095:1 43133:1 43186:1 45440:1 46760:1 51192:1 52957:1 57549:1 58583:1 62189:1 64334:1 66410:1 66418:1 66492:1 66509:1 67094:1 67231:1 67859:1 68032:1 69570:1 70216:1 71936:1 72451:1 77268:1 79077:1 79725:1 81024:1 88832:1 90785:1 92420:1 94329:1 
346.7829051131721 0 0 135:1 1114:1 2974:1 4554:1 6632:1 7677:1 9490:1 13579:1 15627:1 21124:1 21824:1 21825:1 21829:1 21866:1 21903:1 22009:1 22604:1 24691:1 26302:1 27909:1 29140:1 29988:1 30686:1 32939:1 34551:1 35515:1 36399:1 37828:1 38516:1 38717:1 39100:1 39670:1 40379:1 41460:1 42269:1 42681:1 42775:1 42850:1 42913:1 43095:1 43173:1 43231:1 45083:1 45856:1 46972:1 51755:1 53204:1 56478:1 56693:1 58219:1 62240:1 65237:1 66303:1 66354:1 66385:1 66410:1 66418:1 66485:1 66499:1 66545:1 66722:1 66937:1 67094:1 67228:1 67808:1 67950:1 68380:1 68740:1 69148:1 69567:1 70201:1 71857:1 72216:1 73449:1 74148:1 76491:1 78113:1 79077:1 80014:1 81458:1 83531:1 84947:1 88063:1 89643:1 
0 0 473.4734191817486 135:1 1114:1 4554:1 6584:1 7993:1 13131:1 20546:1 21824:1 21825:1 21829:1 21866:1 21903:1 22009:1 22604:1 26302:1 27781:1 29495:1 29988:1 30686:1 34551:1 35515:1 36269:1 38198:1 38516:1 38717:1 39100:1 39670:1 40381:1 41460:1 42277:1 42681:1 42775:1 42850:1 42913:1 43095:1 43179:1 43235:1 45037:1 45856:1 46878:1 48073:1 50612:1 51755:1 53092:1 54633:1 56118:1 56693:1 58660:1 59050:1 61609:1 62240:1 64532:1 66043:1 66303:1 66354:1 66385:1 66410:1 66418:1 66450:1 66524:1 66545:1 66722:1 66937:1 67094:1 67202:1 67495:1 68176:1 68380:1 68740:1 69148:1 69541:1 70033:1 70879:1 72871:1 73449:1 74148:1 78113:1 79077:1 79886:1 81845:1 83531:1 84947:1 89643:1 90838:1 95606:1 
0 0 71.18462895576506 135:1 1114:1 2974:1 4554:1 5848:1 7861:1 10807:1 13380:1 13579:1 17489:1 20845:1 21124:1 21824:1 21825:1 21829:1 21866:1 22009:1 22604:1 24691:1 26302:1 27527:1 28153:1 29140:1 29988:1 30686:1 32939:1 34551:1 35876:1 37828:1 38516:1 38717:1 39111:1 39670:1 40439:1 41460:1 42402:1 42681:1 42775:1 42850:1 42913:1 43116:1 43173:1 43231:1 45083:1 45856:1 47113:1 51755:1 53411:1 56478:1 56693:1 58521:1 62240:1 66303:1 66354:1 66385:1 66410:1 66433:1 66482:1 66499:1 66545:1 66722:1 66937:1 67109:1 67354:1 67770:1 67942:1 68393:1 68740:1 69148:1 69693:1 70506:1 71733:1 72169:1 73449:1 74148:1 76491:1 78113:1 79478:1 81680:1 83531:1 84947:1 88063:1 89646:1 95404:1 
1234.396775175371 871.1575429434554 1312.350511501481 212:1 1114:1 2574:1 11279:1 13153:1 18122:1 20583:1 21824:1 21825:1 21866:1 21881:1 21903:1 22009:1 22604:1 24272:1 29988:1 30686:1 32507:1 35518:1 38525:1 38781:1 39178:1 39706:1 41495:1 42681:1 42775:1 42850:1 42998:1 43097:1 43470:1 44845:1 45213:1 50338:1 50848:1 55087:1 56171:1 57219:1 61166:1 63134:1 66303:1 66354:1 66368:1 66410:1 66423:1 66545:1 66722:1 66809:1 67099:1 68384:1 68740:1 68852:1 73231:1 73531:1 74148:1 76019:1 79080:1 84954:1 87403:1 
479.895709466435 0 0 135:1 1775:1 4099:1 5583:1 6969:1 7677:1 8319:1 9504:1 10408:1 12196:1 14124:1 15648:1 16952:1 19218:1 21824:1 21829:1 21833:1 21866:1 22009:1 23563:1 23669:1 25839:1 27295:1 28416:1 29140:1 29988:1 31658:1 34088:1 35641:1 36939:1 37828:1 38516:1 38717:1 39112:1 39888:1 40447:1 41599:1 42681:1 42783:1 42850:1 42913:1 43117:1 43173:1 43231:1 44390:1 44533:1 45622:1 46456:1 47295:1 49723:1 49883:1 51434:1 52569:1 53650:1 55697:1 56329:1 57219:1 57840:1 58472:1 60939:1 61671:1 63134:1 64179:1 64514:1 66303:1 66335:1 66402:1 66410:1 66434:1 66484:1 66499:1 66545:1 66613:1 67110:1 67375:1 67793:1 67942:1 68394:1 68631:1 69714:1 70580:1 71817:1 72169:1 73449:1 75163:1 77650:1 79205:1 80589:1 81458:1 83488:1 86070:1 
661.8619783117342 0 0 1913:1 3565:1 6848:1 7985:1 10942:1 11403:1 12356:1 17638:1 18250:1 19444:1 21826:1 21833:1 21845:1 21864:1 21865:1 21866:1 21891:1 21900:1 21903:1 24050:1 25288:1 28176:1 29485:1 29802:1 32274:1 33537:1 35514:1 36684:1 38187:1 38523:1 38581:1 39023:1 40214:1 41988:1 42663:1 42743:1 42845:1 42922:1 43094:1 43173:1 43235:1 43758:1 45394:1 48062:1 48796:1 51108:1 54621:1 55903:1 56871:1 59033:1 61051:1 63306:1 66280:1 66312:1 66347:1 66371:1 66410:1 66425:1 66477:1 66532:1 66554:1 66694:1 66848:1 67101:1 67300:1 67754:1 68248:1 68472:1 68712:1 68933:1 69639:1 70394:1 71684:1 73109:1 73259:1 75775:1 77099:1 79076:1 80317:1 81833:1 82309:1 88679:1 90767:1 
1046.7552622295 1373.95943751481 548.7747008091462 231:1 2363:1 5990:1 6642:1 7565:1 9529:1 11905:1 12116:1 12270:1 13626:1 15694:1 18866:1 19115:1 19318:1 21179:1 21826:1 21866:1 22106:1 24050:1 27654:1 27919:1 28998:1 30085:1 32274:1 36006:1 36409:1 37682:1 38525:1 39271:1 40657:1 42638:1 42689:1 42783:1 42845:1 43066:1 43116:1 43173:1 43235:1 43489:1 44377:1 45797:1 46973:1 47763:1 48486:1 49702:1 51668:1 53206:1 55125:1 55875:1 56904:1 58767:1 59106:1 59729:1 60065:1 62365:1 64675:1 66300:1 66346:1 66371:1 66410:1 66416:1 66466:1 66524:1 66542:1 66666:1 66847:1 67092:1 67198:1 67632:1 68179:1 68319:1 68684:1 68914:1 69537:1 70009:1 71272:1 72899:1 73250:1 73551:1 75775:1 79627:1 80025:1 81322:1 
1315.750481196314 97.54430356764263 151.8196308458948 205:1 1114:1 2549:1 6509:1 8763:1 11152:1 11170:1 14733:1 17944:1 17973:1 21824:1 21825:1 21866:1 22009:1 22604:1 24245:1 27306:1 27671:1 29988:1 30686:1 32482:1 35654:1 36154:1 37390:1 38525:1 38781:1 39181:1 39706:1 40562:1 41495:1 42551:1 42681:1 42775:1 42850:1 42998:1 43116:1 43173:1 43235:1 44840:1 46028:1 46465:1 47802:1 50331:1 52031:1 52582:1 56342:1 57171:1 57897:1 59171:1 61678:1 62468:1 64096:1 66231:1 66303:1 66354:1 66385:1 66410:1 66439:1 66476:1 66539:1 66545:1 66722:1 66937:1 67115:1 67411:1 67748:1 68302:1 68398:1 68740:1 69148:1 69750:1 70723:1 71667:1 73202:1 73524:1 74148:1 75992:1 79769:1 84950:1 87380:1 
1258.78117600003 0 0 141:1 3353:1 5711:1 6787:1 7779:1 10262:1 10388:1 10517:1 10880:1 12461:1 16747:1 17118:1 17570:1 19569:1 21821:1 21835:1 21866:1 22014:1 23259:1 25064:1 27421:1 28083:1 29257:1 29993:1 31361:1 33313:1 35766:1 36584:1 37949:1 38516:1 38836:1 39111:1 39951:1 40439:1 41651:1 42404:1 42689:1 42783:1 42850:1 42913:1 43116:1 43173:1 43235:1 44231:1 44753:1 45293:1 47072:1 47887:1 49468:1 50214:1 50964:1 53352:1 54427:1 56135:1 57368:1 58802:1 59396:1 61159:1 62930:1 64683:1 65771:1 66319:1 66358:1 66403:1 66410:1 66434:1 66453:1 66496:1 66561:1 66747:1 67056:1 67110:1 67361:1 67543:1 67890:1 68543:1 68765:1 69408:1 69700:1 70528:1 71049:1 72019:1 73455:1 76875:1 79339:1 80208:1 81579:1 83688:1 88470:1 91654:1 
791.9897987326743 604.9977312566249 0 3880:1 5721:1 6752:1 7959:1 8313:1 12515:1 13404:1 16874:1 19280:1 19642:1 21828:1 21866:1 25616:1 27618:1 28040:1 28799:1 33865:1 35969:1 36535:1 37455:1 38516:1 39111:1 40436:1 42391:1 42913:1 43116:1 43168:1 43235:1 45534:1 48038:1 51313:1 54600:1 56738:1 59155:1 63217:1 66271:1 66410:1 66443:1 66452:1 66495:1 67119:1 67440:1 67528:1 67876:1 69779:1 70781:1 70968:1 71987:1 73254:1 77427:1 79349:1 80162:1 81803:1 89001:1 91681:1 92987:1 
1028.51628401698 62.7754967784028 4.9237700490724 113:1 1208:1 2281:1 3911:1 5717:1 6914:1 7970:1 10281:1 12296:1 12776:1 12901:1 16774:1 19358:1 20020:1 20200:1 21824:1 21826:1 21828:1 21838:1 21866:1 21987:1 22728:1 23968:1 25652:1 27428:1 28040:1 29469:1 29966:1 30809:1 32186:1 33901:1 35773:1 36535:1 38170:1 38516:1 38678:1 39111:1 39856:1 40436:1 41146:1 42391:1 42680:1 42783:1 42842:1 42913:1 43116:1 43168:1 43235:1 43912:1 45545:1 46533:1 48052:1 49037:1 51331:1 52677:1 54612:1 55875:1 57378:1 58094:1 59432:1 60636:1 63386:1 64117:1 65730:1 66319:1 66346:1 66394:1 66410:1 66434:1 66452:1 66513:1 66561:1 66680:1 67008:1 67110:1 67360:1 67532:1 68062:1 68543:1 68698:1 69304:1 69699:1 70520:1 70984:1 72541:1 73424:1 74281:1 75684:1 77463:1 79345:1 80464:1 81815:1 83069:1 85174:1 86782:1 91675:1 93475:1 
0 84.49117732895938 0 113:1 2281:1 4973:1 5656:1 6509:1 8137:1 9562:1 9665:1 12344:1 13133:1 15755:1 15909:1 19429:1 20549:1 21824:1 21826:1 21866:1 21987:1 23968:1 26714:1 27367:1 27671:1 29645:1 29966:1 32186:1 34963:1 35714:1 36154:1 38355:1 38516:1 38678:1 39111:1 39856:1 40439:1 41146:1 42404:1 42680:1 42783:1 42842:1 42913:1 43116:1 43173:1 43235:1 43730:1 46038:1 46498:1 48128:1 48751:1 52044:1 52623:1 54751:1 55299:1 56983:1 57969:1 59530:1 63628:1 64223:1 65919:1 66319:1 66346:1 66394:1 66410:1 66439:1 66476:1 66531:1 66561:1 66680:1 67008:1 67115:1 67411:1 67744:1 68232:1 68546:1 68698:1 69304:1 69750:1 70720:1 71648:1 73076:1 73424:1 75684:1 78525:1 79282:1 79769:1 82013:1 83216:1 
1045.211110195788 283.9689884413085 0 2377:1 4973:1 7037:1 7677:1 10649:1 13404:1 13703:1 17286:1 17402:1 21285:1 21828:1 21829:1 21864:1 21866:1 21891:1 21900:1 21903:1 24063:1 26714:1 28517:1 29140:1 29802:1 32287:1 34963:1 35514:1 37049:1 37828:1 38516:1 38580:1 39099:1 39559:1 40359:1 41427:1 42214:1 42663:1 42718:1 42850:1 42913:1 43094:1 43173:1 43231:1 43995:1 46038:1 47370:1 52044:1 56983:1 58707:1 63628:1 66312:1 66347:1 66394:1 66410:1 66425:1 66476:1 66499:1 66554:1 66694:1 67009:1 67101:1 67299:1 67729:1 67942:1 68472:1 68712:1 69314:1 69638:1 70387:1 71572:1 72169:1 73259:1 75791:1 78525:1 79076:1 80703:1 81458:1 82386:1 90031:1 90772:1 93805:1 95091:1 
2200 329.5642905864744 1938.565283015803 205:1 1203:1 6694:1 7279:1 9805:1 11761:1 16099:1 18686:1 21824:1 21828:1 21866:1 21869:1 21887:1 21903:1 22009:1 22719:1 27974:1 29063:1 29988:1 30802:1 35515:1 36469:1 37749:1 38526:1 42681:1 42783:1 42850:1 43095:1 43166:1 43203:1 45068:1 45353:1 47778:1 51037:1 54272:1 56251:1 59408:1 65721:1 66303:1 66354:1 66369:1 66410:1 66418:1 66476:1 66514:1 66545:1 66722:1 66824:1 67094:1 67221:1 67735:1 68094:1 68380:1 68740:1 68879:1 69560:1 70163:1 71612:1 72679:1 73524:1 74275:1 79077:1 80089:1 81379:1 85165:1 90901:1 92808:1 
0 1198.592736841087 692.9197362807756 113:1 3704:1 9111:1 15155:1 21824:1 21865:1 21866:1 21882:1 21886:1 21901:1 21903:1 21904:1 21987:1 25442:1 29966:1 30200:1 33691:1 35511:1 36034:1 38516:1 38678:1 39096:1 39348:1 40333:1 42680:1 42699:1 42913:1 43091:1 43128:1 44639:1 45429:1 50017:1 51180:1 57477:1 62522:1 66319:1 66337:1 66386:1 66410:1 66420:1 66461:1 66561:1 66627:1 66947:1 67096:1 67246:1 68529:1 68645:1 69186:1 69585:1 73424:1 73665:1 77253:1 79073:1 79649:1 83034:1 84450:1 88808:1 90518:1 
0 0 396.7787640335902 113:1 1554:1 2720:1 3704:1 7088:1 10255:1 10759:1 12300:1 12445:1 17425:1 19364:1 19547:1 21824:1 21846:1 21866:1 21903:1 21987:1 23254:1 24421:1 25442:1 28563:1 29149:1 29966:1 31355:1 32659:1 33691:1 35515:1 37101:1 37836:1 38516:1 38678:1 39100:1 39856:1 40379:1 41583:1 42270:1 42680:1 42783:1 42850:1 42913:1 43095:1 43173:1 43235:1 44231:1 44959:1 45429:1 47388:1 47832:1 49466:1 50468:1 51180:1 55784:1 56249:1 57477:1 58713:1 59175:1 60040:1 61283:1 62522:1 66319:1 66330:1 66385:1 66410:1 66418:1 66472:1 66529:1 66561:1 66585:1 66922:1 67094:1 67217:1 67693:1 68224:1 68527:1 68603:1 69103:1 69556:1 70132:1 71482:1 73060:1 73238:1 73245:1 73251:1 73424:1 74844:1 76194:1 77253:1 79077:1 80762:1 83034:1 85750:1 88811:1 91161:1 
2157.738433980883 1492.28783362089 101.1886082090903 113:1 2620:1 7165:1 7886:1 12584:1 12790:1 20038:1 21824:1 21826:1 21829:1 21866:1 21903:1 21987:1 24050:1 28680:1 29140:1 29966:1 32274:1 35515:1 37226:1 37828:1 38516:1 38678:1 39100:1 39856:1 40379:1 41306:1 42269:1 42680:1 42783:1 42845:1 42913:1 43095:1 43173:1 43231:1 44294:1 44886:1 46290:1 47459:1 47970:1 52371:1 53879:1 55866:1 56303:1 57769:1 58304:1 59279:1 60631:1 62226:1 65004:1 66319:1 66346:1 66371:1 66410:1 66418:1 66476:1 66499:1 66561:1 66680:1 66847:1 67094:1 67221:1 67729:1 67944:1 68527:1 68698:1 68924:1 69560:1 70157:1 71574:1 72201:1 73424:1 76076:1 79077:1 80892:1 81707:1 91208:1 94101:1 95475:1 
0 1293.642543850995 0 3582:1 10179:1 16634:1 21866:1 21889:1 21903:1 21905:1 25311:1 33560:1 35515:1 36148:1 37351:1 38523:1 39024:1 40218:1 41990:1 42922:1 43095:1 43133:1 43186:1 45406:1 46759:1 51125:1 52956:1 57159:1 58583:1 62088:1 64334:1 66410:1 66418:1 66492:1 66509:1 67094:1 67231:1 67859:1 68032:1 69570:1 70216:1 71936:1 72451:1 77122:1 79077:1 79723:1 81024:1 90784:1 92419:1 94329:1 
0 0 368.9254409453528 113:1 958:1 2597:1 3096:1 7005:1 7739:1 8622:1 8859:1 10543:1 13785:1 14541:1 14863:1 17155:1 21394:1 21824:1 21826:1 21828:1 21833:1 21866:1 21903:1 21987:1 22370:1 24050:1 24795:1 28469:1 29209:1 29966:1 30458:1 32274:1 33044:1 35511:1 36996:1 37902:1 38523:1 38702:1 39231:1 39877:1 40605:1 41320:1 42592:1 42680:1 42783:1 42845:1 43045:1 43091:1 43173:1 43235:1 43752:1 45162:1 47344:1 47852:1 48786:1 50770:1 53701:1 54391:1 55847:1 57714:1 58252:1 59473:1 60462:1 63438:1 65068:1 65864:1 66319:1 66346:1 66371:1 66410:1 66420:1 66476:1 66531:1 66561:1 66680:1 66847:1 67096:1 67255:1 67744:1 68232:1 68529:1 68698:1 68924:1 69594:1 70275:1 71648:1 73076:1 73424:1 73898:1 76049:1 76606:1 79073:1 80644:1 81532:1 82919:1 84709:1 87435:1 90542:1 95191:1 
497.1389844320429 699.2440589530532 1468.019055764985 113:1 1444:1 3582:1 5972:1 7137:1 8975:1 11688:1 13785:1 14997:1 18602:1 21394:1 21824:1 21866:1 21987:1 23071:1 25311:1 27642:1 28652:1 29966:1 31168:1 33560:1 35994:1 37190:1 38523:1 38681:1 39032:1 39859:1 40265:1 41585:1 42102:1 42680:1 42783:1 42850:1 42922:1 43116:1 43173:1 43235:1 44111:1 45406:1 46700:1 47725:1 49305:1 51125:1 52882:1 54173:1 55374:1 56234:1 57159:1 58128:1 59438:1 60645:1 61433:1 62088:1 64194:1 65551:1 66319:1 66330:1 66385:1 66410:1 66432:1 66468:1 66529:1 66561:1 66585:1 66922:1 67108:1 67345:1 67668:1 68220:1 68541:1 68603:1 69103:1 69684:1 70492:1 71416:1 73038:1 73424:1 74649:1 77122:1 79609:1 80854:1 
1704.882995046767 435.4171204039678 2200 135:1 1114:1 2209:1 5639:1 6752:1 8274:1 9436:1 10338:1 14098:1 14105:1 15557:1 21793:1 21801:1 21824:1 21825:1 21828:1 21866:1 22009:1 22604:1 23880:1 27349:1 28040:1 29794:1 29988:1 30686:1 32099:1 35696:1 36535:1 38510:1 38516:1 38717:1 39111:1 39670:1 40436:1 41460:1 42391:1 42681:1 42775:1 42850:1 42913:1 43116:1 43168:1 43235:1 44669:1 46498:1 48234:1 50069:1 54902:1 56228:1 57891:1 59405:1 61278:1 66288:1 66303:1 66354:1 66368:1 66410:1 66434:1 66452:1 66513:1 66545:1 66722:1 66809:1 67110:1 67360:1 67532:1 68079:1 68394:1 68740:1 68852:1 69699:1 70520:1 70994:1 72610:1 73252:1 73449:1 74148:1 75598:1 79264:1 80162:1 82183:1 84947:1 86638:1 91481:1 93045:1 96059:1 
2200 0 868.4242544514453 205:1 1114:1 3052:1 7237:1 7720:1 8344:1 14105:1 14165:1 21801:1 21824:1 21825:1 21836:1 21866:1 21903:1 22009:1 22604:1 24783:1 28786:1 29189:1 29988:1 30686:1 33032:1 35515:1 37339:1 37877:1 38516:1 38717:1 39100:1 39670:1 40381:1 41460:1 42277:1 42681:1 42775:1 42850:1 42913:1 43095:1 43179:1 43235:1 45149:1 46299:1 47548:1 47844:1 50759:1 52385:1 53982:1 54375:1 56420:1 57314:1 58713:1 59464:1 61940:1 62507:1 64336:1 65747:1 66303:1 66354:1 66385:1 66410:1 66418:1 66451:1 66500:1 66545:1 66722:1 66937:1 67094:1 67203:1 67507:1 67954:1 68380:1 68740:1 69148:1 69542:1 70041:1 70912:1 72233:1 73524:1 74148:1 76591:1 79077:1 81013:1 81507:1 84950:1 88184:1 91249:1 
1050.464736628135 0 0 135:1 1114:1 2757:1 4640:1 6727:1 7398:1 9861:1 10179:1 12515:1 16409:1 16634:1 19644:1 21824:1 21825:1 21866:1 21903:1 22009:1 22604:1 24461:1 26386:1 27979:1 28800:1 29988:1 30686:1 32702:1 34635:1 35515:1 36478:1 37478:1 38516:1 38717:1 39100:1 39670:1 40379:1 41460:1 42270:1 42681:1 42775:1 42850:1 42913:1 43095:1 43173:1 43235:1 44980:1 45878:1 47018:1 50495:1 51808:1 53283:1 56459:1 57281:1 58490:1 61945:1 63759:1 64566:1 66303:1 66354:1 66385:1 66410:1 66418:1 66482:1 66524:1 66545:1 66722:1 66937:1 67094:1 67225:1 67782:1 68180:1 68380:1 68740:1 69148:1 69564:1 70193:1 71788:1 72915:1 73238:1 73449:1 74148:1 76242:1 78197:1 79077:1 80123:1 81120:1 83539:1 84947:1 87787:1 89724:1 90915:1 92865:1 94645:1 
0 63.43291784088332 0 36:1 1825:1 2970:1 4618:1 5939:1 6773:1 7565:1 10329:1 11011:1 14012:1 16844:1 17747:1 21689:1 21866:1 21906:1 23637:1 24682:1 26362:1 27615:1 28063:1 28998:1 29888:1 31734:1 32931:1 34611:1 35966:1 36559:1 37682:1 38516:1 38836:1 39111:1 39951:1 40439:1 41651:1 42404:1 42689:1 42783:1 42850:1 42913:1 43116:1 43173:1 43235:1 44438:1 45869:1 47059:1 47763:1 49788:1 51795:1 53338:1 55563:1 56825:1 58806:1 59106:1 60879:1 62427:1 64847:1 66319:1 66346:1 66374:1 66410:1 66428:1 66482:1 66524:1 66561:1 66680:1 66860:1 67104:1 67330:1 67782:1 68177:1 68537:1 68698:1 68970:1 69669:1 70453:1 71785:1 72878:1 73342:1 75244:1 76485:1 78173:1 79575:1 80187:1 81322:1 82821:1 86145:1 88058:1 92032:1 94839:1 
500.0357738671815 0 1861.182958923287 135:1 1114:1 2757:1 4640:1 6727:1 8109:1 8471:1 9861:1 12264:1 12515:1 14361:1 16409:1 19307:1 19644:1 21824:1 21825:1 21866:1 21903:1 22009:1 22604:1 24461:1 26386:1 27979:1 29602:1 29988:1 30686:1 32702:1 34635:1 35515:1 36478:1 38313:1 38516:1 38717:1 39100:1 39670:1 40379:1 41460:1 42270:1 42681:1 42775:1 42850:1 42913:1 43095:1 43173:1 43235:1 44980:1 45878:1 47018:1 48108:1 50495:1 51808:1 53283:1 56459:1 57281:1 58490:1 59393:1 61945:1 63759:1 64566:1 66303:1 66354:1 66385:1 66410:1 66418:1 66482:1 66498:1 66545:1 66722:1 66937:1 67094:1 67225:1 67769:1 67921:1 68380:1 68740:1 69148:1 69564:1 70182:1 71715:1 72097:1 73238:1 73449:1 74148:1 76242:1 78197:1 79077:1 80123:1 81980:1 83539:1 84947:1 87787:1 89724:1 90915:1 92868:1 95760:1 
0 0 370.044298066415 113:1 348:1 2281:1 4266:1 8471:1 8555:1 12010:1 12693:1 14361:1 14459:1 18993:1 19883:1 21824:1 21826:1 21838:1 21864:1 21866:1 21868:1 21903:1 21905:1 21987:1 22265:1 23968:1 26001:1 29966:1 30352:1 32186:1 34250:1 35515:1 37458:1 38516:1 38678:1 39100:1 39586:1 40367:1 41105:1 42229:1 42680:1 42718:1 42842:1 42913:1 43095:1 43146:1 43198:1 43687:1 45724:1 46837:1 48685:1 51567:1 53039:1 55906:1 57179:1 58622:1 60957:1 62093:1 66319:1 66347:1 66394:1 66410:1 66418:1 66467:1 66512:1 66561:1 66698:1 67009:1 67094:1 67212:1 67652:1 68060:1 68527:1 68716:1 69317:1 69551:1 70107:1 71370:1 72524:1 73424:1 73797:1 75684:1 77812:1 79077:1 81119:1 86727:1 89398:1 
443.9012874911102 0 0 4973:1 8555:1 10895:1 11281:1 11724:1 14459:1 17586:1 18125:1 18646:1 21864:1 21866:1 21868:1 21900:1 21902:1 21903:1 21905:1 26714:1 29887:1 31760:1 34963:1 35515:1 37458:1 38516:1 38644:1 39100:1 40367:1 42229:1 42671:1 42723:1 42802:1 42913:1 43095:1 43146:1 43198:1 43696:1 46038:1 47242:1 48703:1 52044:1 53580:1 55667:1 56983:1 58833:1 63628:1 64993:1 66314:1 66347:1 66375:1 66410:1 66418:1 66467:1 66512:1 66556:1 66696:1 66868:1 67094:1 67212:1 67652:1 68058:1 68484:1 68714:1 68993:1 69551:1 70107:1 71368:1 73341:1 75270:1 78525:1 79077:1 81119:1 90032:1 94636:1 
899.30855854729 842.9425756807054 403.8914837974688 328:1 4116:1 10833:1 11724:1 12693:1 17517:1 18646:1 19883:1 21865:1 21866:1 21868:1 21901:1 21903:1 21905:1 22208:1 25856:1 30190:1 30289:1 34105:1 35515:1 37458:1 38516:1 38836:1 39100:1 39431:1 40366:1 42236:1 42689:1 42709:1 42819:1 42913:1 43095:1 43145:1 43198:1 44889:1 45628:1 47116:1 50383:1 51440:1 53417:1 56498:1 56807:1 58829:1 61645:1 62424:1 66301:1 66345:1 66386:1 66410:1 66418:1 66467:1 66512:1 66543:1 66665:1 67094:1 67212:1 67652:1 68058:1 68341:1 68683:1 69551:1 70107:1 71368:1 73656:1 73755:1 77667:1 79077:1 81119:1 84332:1 84571:1 89258:1 
1286.660673991183 1571.159885617908 1171.811522134853 8509:1 8726:1 12213:1 13273:1 14406:1 14689:1 19240:1 20722:1 21864:1 21866:1 21868:1 21900:1 21902:1 21903:1 21905:1 29887:1 31760:1 35515:1 37353:1 38516:1 38644:1 39100:1 39519:1 40366:1 40757:1 42234:1 42671:1 42721:1 42802:1 42913:1 43095:1 43145:1 43188:1 44325:1 45866:1 57208:1 62102:1 66314:1 66347:1 66375:1 66410:1 66418:1 66467:1 66503:1 66556:1 66696:1 66868:1 67094:1 67212:1 67645:1 67974:1 68484:1 68714:1 68993:1 69551:1 70102:1 71301:1 72286:1 73341:1 75270:1 79077:1 81026:1 94554:1 
2200 1465.075360481502 2045.516063172573 328:1 3141:1 11719:1 11787:1 12213:1 18640:1 18717:1 19240:1 21865:1 21866:1 21868:1 21883:1 21901:1 21903:1 21905:1 22208:1 24852:1 30190:1 30200:1 33101:1 35515:1 37357:1 38516:1 38836:1 39100:1 39363:1 40366:1 40963:1 42235:1 42689:1 42699:1 42818:1 42913:1 43095:1 43145:1 43190:1 44941:1 45201:1 50821:1 57292:1 62137:1 66301:1 66337:1 66386:1 66410:1 66418:1 66467:1 66508:1 66543:1 66618:1 66947:1 67094:1 67212:1 67649:1 68341:1 68636:1 69178:1 69551:1 70105:1 73656:1 73665:1 76663:1 79077:1 81028:1 84299:1 84483:1 88263:1 
2057.180409384103 125.507749326534 1842.022875446906 135:1 1203:1 2302:1 4218:1 5886:1 6752:1 8286:1 8750:1 9909:1 9997:1 14713:1 16266:1 16386:1 21824:1 21827:1 21828:1 21866:1 21896:1 22009:1 22719:1 23991:1 26006:1 27562:1 28040:1 29988:1 30802:1 32210:1 34255:1 35913:1 36535:1 38516:1 38707:1 38947:1 39882:1 40108:1 41597:1 41844:1 42681:1 42783:1 42850:1 42868:1 43116:1 43168:1 43235:1 44700:1 45728:1 46647:1 47695:1 50130:1 51570:1 54137:1 56147:1 57716:1 58037:1 59463:1 61164:1 62804:1 65860:1 66303:1 66354:1 66403:1 66410:1 66434:1 66452:1 66513:1 66545:1 66722:1 67055:1 67110:1 67360:1 67532:1 68068:1 68394:1 68740:1 69403:1 69699:1 70520:1 70985:1 72563:1 73256:1 73449:1 74275:1 75705:1 77817:1 79516:1 80162:1 83520:1 85162:1 91932:1 
896.2019831308323 0 0 141:1 1394:1 4753:1 6001:1 6161:1 8524:1 10419:1 10624:1 11222:1 12040:1 12754:1 14426:1 16965:1 17249:1 18048:1 19025:1 19985:1 21866:1 21868:1 21905:1 22014:1 22978:1 26504:1 27665:1 28080:1 29993:1 31073:1 34753:1 36016:1 36580:1 37353:1 38516:1 38836:1 39111:1 39951:1 40431:1 41651:1 42360:1 42689:1 42783:1 42850:1 42913:1 43116:1 43145:1 43188:1 44036:1 45005:1 45922:1 47072:1 49221:1 50545:1 51885:1 53352:1 55642:1 56209:1 57051:1 58359:1 60664:1 61477:1 63726:1 64788:1 66319:1 66330:1 66385:1 66410:1 66412:1 66467:1 66503:1 66561:1 66585:1 66922:1 67088:1 67151:1 67645:1 68521:1 68603:1 69103:1 69490:1 69877:1 73251:1 73455:1 74547:1 78315:1 79639:1 80213:1 81026:1 83767:1 85439:1 89827:1 92155:1 93143:1 
2136.757826566986 92.93522108937157 0 328:1 704:1 2377:1 3892:1 9284:1 10624:1 11222:1 12040:1 12144:1 12754:1 15366:1 17249:1 18048:1 19025:1 19150:1 19985:1 21864:1 21866:1 21903:1 22208:1 23168:1 24063:1 25630:1 28390:1 30190:1 31268:1 32287:1 33879:1 35515:1 38523:1 38842:1 39024:1 39597:1 40230:1 41440:1 42023:1 42689:1 42718:1 42850:1 42922:1 43095:1 43173:1 43235:1 44171:1 45536:1 47273:1 47862:1 49394:1 51317:1 53626:1 54402:1 55528:1 56859:1 58608:1 59398:1 61033:1 62712:1 64390:1 66262:1 66301:1 66347:1 66394:1 66410:1 66418:1 66481:1 66513:1 66543:1 66686:1 67009:1 67094:1 67224:1 67765:1 68079:1 68341:1 68704:1 69307:1 69563:1 72610:1 73656:1 74754:1 75791:1 77441:1 79077:1 84323:1 85662:1 89031:1 
2200 480.810774542689 1489.779718661539 135:1 875:1 4862:1 5670:1 6914:1 7302:1 8672:1 9535:1 10518:1 14603:1 15711:1 17119:1 21824:1 21827:1 21828:1 21843:1 21866:1 21869:1 22009:1 22217:1 26591:1 27381:1 28040:1 29206:1 29988:1 30308:1 34840:1 35728:1 36535:1 37898:1 38526:1 38782:1 39173:1 39925:1 40540:1 41629:1 42523:1 42681:1 42783:1 42850:1 42999:1 43109:1 43168:1 43217:1 44670:1 45990:1 47850:1 50074:1 51956:1 54387:1 56428:1 57356:1 59440:1 61784:1 63777:1 65553:1 66303:1 66354:1 66400:1 66410:1 66434:1 66452:1 66514:1 66545:1 66722:1 67034:1 67110:1 67360:1 67533:1 68107:1 68394:1 68740:1 69376:1 69699:1 70521:1 71013:1 72706:1 73449:1 73756:1 78402:1 79296:1 80464:1 81528:1 83568:1 84573:1 89913:1 91552:1 93441:1 95188:1 
368.9589396019209 0 0 141:1 1502:1 5421:1 6757:1 8296:1 8672:1 12156:1 14603:1 19176:1 21853:1 21865:1 21866:1 21890:1 21903:1 22014:1 23170:1 27166:1 28050:1 29993:1 31270:1 35415:1 35515:1 36544:1 37383:1 38516:1 38836:1 39100:1 39951:1 40379:1 40975:1 42264:1 42689:1 42783:1 42818:1 42913:1 43095:1 43173:1 43193:1 44174:1 44575:1 46290:1 47584:1 49398:1 52372:1 54015:1 55391:1 56807:1 59014:1 59965:1 63026:1 65419:1 66319:1 66358:1 66386:1 66410:1 66418:1 66476:1 66539:1 66561:1 66747:1 66959:1 67094:1 67221:1 67748:1 68303:1 68527:1 68765:1 69218:1 69560:1 70174:1 71668:1 73455:1 74760:1 78977:1 79077:1 80171:1 81055:1 83805:1 85668:1 90431:1 90931:1 
0 796.681971505016 70.25644546100244 113:1 1989:1 7141:1 7616:1 12529:1 12702:1 13371:1 19660:1 19899:1 20832:1 21824:1 21829:1 21865:1 21866:1 21901:1 21903:1 21987:1 24463:1 28655:1 29070:1 29966:1 30197:1 32706:1 35515:1 37194:1 37758:1 38516:1 38678:1 39100:1 39306:1 40379:1 40982:1 42268:1 42680:1 42696:1 42816:1 42913:1 43095:1 43173:1 43230:1 44982:1 46236:1 47441:1 50497:1 52316:1 53854:1 56282:1 56919:1 58376:1 61357:1 63319:1 65203:1 66319:1 66339:1 66386:1 66410:1 66418:1 66466:1 66524:1 66561:1 66642:1 66949:1 67094:1 67211:1 67632:1 68174:1 68527:1 68660:1 69191:1 69550:1 70099:1 71267:1 72859:1 73424:1 73662:1 76245:1 79077:1 80858:1 81387:1 84392:1 91190:1 94066:1 94897:1 
719.9337554442494 344.3573829391832 148.8703356571909 36:1 1197:1 4753:1 5705:1 6851:1 8292:1 10246:1 10942:1 10956:1 13047:1 16722:1 17655:1 17669:1 20429:1 21866:1 21886:1 21906:1 22714:1 26504:1 27412:1 28176:1 29888:1 30797:1 34753:1 35758:1 36684:1 38516:1 38836:1 39111:1 39951:1 40439:1 40891:1 42404:1 42689:1 42783:1 42806:1 42913:1 43116:1 43173:1 43235:1 43909:1 45922:1 46525:1 47131:1 49026:1 51885:1 52664:1 53440:1 55502:1 57051:1 58002:1 58930:1 59033:1 60417:1 63726:1 64129:1 64486:1 65887:1 66319:1 66358:1 66409:1 66410:1 66431:1 66477:1 66532:1 66561:1 66747:1 67085:1 67107:1 67341:1 67754:1 68253:1 68540:1 68765:1 69457:1 69680:1 70472:1 71688:1 73342:1 74269:1 78315:1 79333:1 80320:1 85151:1 
2200 1010.989367559531 2200 135:1 1114:1 6001:1 9867:1 10193:1 12255:1 12364:1 12604:1 16189:1 19297:1 19457:1 19761:1 21824:1 21825:1 21866:1 22009:1 22604:1 27665:1 28039:1 29460:1 29988:1 30686:1 36016:1 38162:1 38529:1 38768:1 39697:1 41486:1 42681:1 42775:1 42850:1 42985:1 43116:1 43173:1 43235:1 46215:1 47044:1 48041:1 53315:1 54603:1 56273:1 57389:1 59443:1 61289:1 63387:1 66034:1 66303:1 66354:1 66385:1 66410:1 66412:1 66482:1 66496:1 66545:1 66722:1 66937:1 67088:1 67160:1 67767:1 67890:1 68375:1 68740:1 69148:1 69499:1 71709:1 72019:1 73449:1 74148:1 79639:1 84947:1 
2200 1272.66165665031 1356.498622248492 1114:1 2443:1 6001:1 6752:1 10159:1 10542:1 12454:1 13150:1 16610:1 17152:1 19558:1 20580:1 21825:1 21828:1 21866:1 22604:1 24127:1 27665:1 28040:1 30686:1 32357:1 36016:1 36535:1 38526:1 42689:1 42775:1 42850:1 42964:1 43116:1 43168:1 43235:1 44763:1 45666:1 48129:1 50235:1 51494:1 55004:1 56045:1 57093:1 59080:1 59711:1 61449:1 63559:1 65484:1 66315:1 66354:1 66385:1 66410:1 66412:1 66452:1 66513:1 66557:1 66727:1 66937:1 67088:1 67145:1 67532:1 68061:1 68488:1 68745:1 69153:1 69484:1 69853:1 70983:1 72535:1 73236:1 74148:1 75865:1 79639:1 80162:1 87272:1 92149:1 
2200 938.2486815511039 2200 135:1 1553:1 12454:1 13150:1 19558:1 20580:1 21824:1 21825:1 21866:1 21880:1 21881:1 21903:1 22009:1 23251:1 29988:1 31352:1 35518:1 38526:1 38727:1 39016:1 39896:1 41606:1 42681:1 42783:1 42850:1 42932:1 43097:1 44231:1 44976:1 46145:1 49464:1 52205:1 55323:1 56228:1 57188:1 60713:1 62737:1 66303:1 66354:1 66368:1 66410:1 66423:1 66545:1 66722:1 66809:1 67099:1 68384:1 68740:1 68852:1 73449:1 74841:1 79080:1 85745:1 
1224.185872021293 2200 2200 113:1 2281:1 9284:1 12122:1 15366:1 19124:1 21821:1 21824:1 21826:1 21866:1 21881:1 21903:1 21987:1 23968:1 29966:1 32186:1 35518:1 38523:1 38681:1 39026:1 39859:1 41147:1 42680:1 42783:1 42842:1 42922:1 43097:1 43812:1 45338:1 51017:1 55455:1 60117:1 66319:1 66346:1 66394:1 66410:1 66423:1 66561:1 66680:1 67008:1 67099:1 68532:1 68698:1 69304:1 73424:1 75684:1 79080:1 
0 388.9158460588942 0 36:1 1005:1 2363:1 3903:1 6752:1 9223:1 10000:1 12648:1 13939:1 15282:1 16393:1 19825:1 21594:1 21826:1 21828:1 21833:1 21866:1 21903:1 21906:1 22450:1 24050:1 25641:1 28040:1 29888:1 30535:1 32274:1 33890:1 35515:1 36535:1 38516:1 38836:1 39100:1 39951:1 40377:1 41329:1 42260:1 42689:1 42783:1 42845:1 42913:1 43095:1 43168:1 43235:1 43802:1 45536:1 47801:1 48851:1 51321:1 55332:1 57484:1 59294:1 60111:1 63667:1 66319:1 66346:1 66371:1 66410:1 66418:1 66452:1 66513:1 66561:1 66680:1 66847:1 67094:1 67204:1 67532:1 68082:1 68527:1 68698:1 68924:1 69543:1 70058:1 70996:1 72627:1 73342:1 73981:1 75775:1 77452:1 79077:1 80162:1 86974:1 90926:1 
1810.106043596796 0 0 113:1 2363:1 3880:1 5711:1 6389:1 7795:1 9628:1 10239:1 10942:1 12476:1 12673:1 15854:1 16714:1 17671:1 19594:1 20197:1 21824:1 21826:1 21866:1 21868:1 21987:1 24050:1 25616:1 27421:1 28481:1 29267:1 29966:1 32274:1 33865:1 35766:1 37009:1 37958:1 38516:1 38678:1 39111:1 39856:1 40430:1 41306:1 42371:1 42680:1 42783:1 42845:1 42913:1 43116:1 43140:1 43235:1 43834:1 45534:1 47344:1 47894:1 48901:1 51313:1 53706:1 55289:1 56738:1 58773:1 59196:1 60496:1 63217:1 64431:1 66319:1 66346:1 66371:1 66410:1 66434:1 66467:1 66525:1 66561:1 66680:1 66847:1 67110:1 67367:1 67660:1 68199:1 68543:1 68698:1 68924:1 69706:1 70562:1 71391:1 72974:1 73424:1 75775:1 77427:1 79339:1 80658:1 81598:1 83058:1 89000:1 91665:1 
937.6102046777173 0 0 113:1 910:1 2597:1 5421:1 8522:1 12739:1 14420:1 19945:1 21824:1 21826:1 21866:1 21868:1 21903:1 21905:1 21987:1 22275:1 24050:1 27166:1 29966:1 30361:1 32274:1 35415:1 35515:1 37353:1 38516:1 38678:1 39100:1 39856:1 40366:1 41306:1 42234:1 42680:1 42783:1 42845:1 42913:1 43095:1 43145:1 43188:1 43694:1 46290:1 48696:1 52372:1 55460:1 56807:1 58409:1 60169:1 63026:1 64467:1 66319:1 66346:1 66371:1 66410:1 66418:1 66467:1 66503:1 66561:1 66680:1 66847:1 67094:1 67212:1 67645:1 67987:1 68527:1 68698:1 68924:1 69551:1 70102:1 71314:1 72340:1 73251:1 73424:1 73806:1 76049:1 78977:1 79077:1 81026:1 83294:1 84626:1 87429:1 90431:1 94548:1 
2200 545.4766420320955 2200 135:1 1071:1 6744:1 8155:1 8434:1 12766:1 14313:1 20009:1 21824:1 21866:1 21902:1 21903:1 22009:1 22538:1 28022:1 29672:1 29988:1 30624:1 31760:1 35515:1 36519:1 38380:1 38526:1 38771:1 39156:1 39918:1 40525:1 40808:1 42511:1 42681:1 42783:1 42802:1 42988:1 43095:1 43173:1 43235:1 43834:1 45379:1 47029:1 48894:1 51085:1 53300:1 55681:1 58607:1 60266:1 65026:1 66303:1 66352:1 66375:1 66410:1 66418:1 66472:1 66515:1 66545:1 66714:1 66871:1 67094:1 67217:1 67687:1 68117:1 68380:1 68732:1 68998:1 69556:1 70126:1 71451:1 72728:1 73449:1 74084:1 75270:1 79077:1 80145:1 82039:1 86244:1 90921:1 92891:1 
224.1280274689382 0 0 135:1 875:1 3886:1 5708:1 6869:1 7398:1 8853:1 11066:1 14042:1 14854:1 17810:1 21734:1 21824:1 21833:1 21866:1 22009:1 22217:1 23771:1 25623:1 27415:1 28196:1 28800:1 29988:1 30308:1 31989:1 33872:1 35761:1 36711:1 37478:1 38524:1 38761:1 39147:1 39913:1 40518:1 41619:1 42508:1 42681:1 42783:1 42850:1 42978:1 43116:1 43173:1 43235:1 44602:1 45536:1 47157:1 49975:1 51317:1 53467:1 56459:1 56807:1 58845:1 63026:1 64732:1 66303:1 66354:1 66385:1 66410:1 66412:1 66449:1 66524:1 66545:1 66722:1 66937:1 67088:1 67143:1 67477:1 68174:1 68375:1 68740:1 69148:1 69482:1 69848:1 70837:1 72858:1 73449:1 73756:1 77434:1 79336:1 80349:1 81120:1 83450:1 84573:1 94651:1 
2187.621228952189 0 864.9883251344332 135:1 875:1 7141:1 7616:1 8832:1 13371:1 13763:1 14830:1 20832:1 21358:1 21824:1 21829:1 21866:1 21903:1 22009:1 22217:1 28655:1 29070:1 29988:1 30308:1 35515:1 37194:1 37758:1 38524:1 38761:1 39141:1 39913:1 40501:1 41619:1 42476:1 42681:1 42783:1 42850:1 42978:1 43095:1 43173:1 43230:1 45100:1 45994:1 47441:1 50706:1 51965:1 53854:1 56440:1 56919:1 58376:1 61218:1 65203:1 66303:1 66354:1 66402:1 66410:1 66418:1 66466:1 66524:1 66545:1 66722:1 67047:1 67094:1 67211:1 67632:1 68174:1 68380:1 68740:1 69393:1 69550:1 70099:1 71267:1 72859:1 73449:1 73756:1 79077:1 80858:1 81387:1 84573:1 91190:1 94066:1 94897:1 
2200 68.72983430620577 206.9500832773375 145:1 4902:1 6001:1 6315:1 9076:1 10426:1 11761:1 15114:1 16975:1 18686:1 21823:1 21866:1 21868:1 21883:1 21901:1 21905:1 22018:1 26634:1 27665:1 28343:1 29997:1 30197:1 34883:1 36016:1 36864:1 37357:1 38516:1 38836:1 39111:1 39315:1 40430:1 41358:1 42368:1 42689:1 42696:1 42850:1 42913:1 43116:1 43140:1 43190:1 43404:1 44635:1 45999:1 47248:1 48399:1 51982:1 53587:1 55170:1 56300:1 57537:1 58742:1 59781:1 61179:1 62186:1 64578:1 66319:1 66339:1 66385:1 66410:1 66412:1 66467:1 66508:1 66561:1 66642:1 66928:1 67088:1 67151:1 67649:1 68521:1 68660:1 69123:1 69490:1 69880:1 73252:1 73459:1 73662:1 78445:1 79639:1 80511:1 81028:1 89965:1 92182:1 93611:1 
2200 0 0 328:1 748:1 2391:1 4568:1 9076:1 12476:1 15114:1 19594:1 21821:1 21864:1 21866:1 21881:1 21903:1 22208:1 23263:1 24077:1 26311:1 30190:1 31366:1 32301:1 34560:1 35518:1 38516:1 38836:1 39102:1 39596:1 41439:1 42689:1 42718:1 42850:1 42913:1 43097:1 44231:1 44745:1 45860:1 49469:1 50205:1 51764:1 55821:1 56500:1 57487:1 60051:1 61647:1 62388:1 66301:1 66347:1 66394:1 66410:1 66423:1 66543:1 66686:1 67009:1 67099:1 68344:1 68704:1 69307:1 73656:1 74858:1 75805:1 78122:1 79080:1 84346:1 85761:1 89657:1 
113.1686372554856 1057.409384351803 0 101:1 2992:1 4014:1 5690:1 6961:1 9634:1 10811:1 10942:1 11444:1 13657:1 15863:1 17493:1 17638:1 18292:1 21222:1 21866:1 21972:1 24708:1 25752:1 27401:1 28404:1 29952:1 32957:1 34001:1 35746:1 36926:1 38516:1 38836:1 39111:1 39951:1 40439:1 41651:1 42404:1 42689:1 42783:1 42850:1 42913:1 43116:1 43173:1 43235:1 43369:1 43834:1 45093:1 45588:1 46517:1 47285:1 48902:1 50690:1 51392:1 52652:1 55007:1 55399:1 56238:1 56807:1 58071:1 58592:1 59529:1 59967:1 61630:1 63026:1 63991:1 66041:1 66319:1 66346:1 66403:1 66410:1 66434:1 66474:1 66496:1 66561:1 66680:1 67052:1 67110:1 67370:1 67698:1 67894:1 68543:1 68698:1 69399:1 69709:1 71501:1 72030:1 73256:1 73410:1 76512:1 77563:1 79318:1 80576:1 82897:1 
1545.228686615467 419.69660367021 945.2004824826572 205:1 875:1 6684:1 7968:1 9110:1 9435:1 12270:1 15158:1 15555:1 19318:1 21824:1 21866:1 21903:1 22009:1 22217:1 27964:1 29465:1 29988:1 30308:1 35515:1 36457:1 38167:1 38523:1 38720:1 39024:1 39891:1 40230:1 41602:1 42023:1 42681:1 42783:1 42850:1 42922:1 43095:1 43173:1 43235:1 45627:1 46989:1 48046:1 51439:1 53236:1 54608:1 56491:1 57733:1 58916:1 59398:1 61643:1 62021:1 65352:1 65595:1 66303:1 66354:1 66368:1 66410:1 66418:1 66472:1 66513:1 66545:1 66722:1 66809:1 67094:1 67217:1 67685:1 68082:1 68380:1 68740:1 68852:1 69556:1 70124:1 71446:1 72626:1 73524:1 73756:1 79077:1 80075:1 81813:1 84578:1 90897:1 
2200 0 1652.538115258952 135:1 1203:1 6001:1 7088:1 11104:1 17860:1 21824:1 21866:1 22009:1 22719:1 24227:1 27665:1 28563:1 29988:1 30802:1 32463:1 36016:1 37101:1 38527:1 38766:1 39135:1 39917:1 40478:1 41622:1 42451:1 42681:1 42783:1 42850:1 42983:1 43116:1 43173:1 43235:1 44834:1 45372:1 47388:1 48121:1 50317:1 51076:1 54734:1 56529:1 57368:1 58713:1 59358:1 61447:1 62930:1 65838:1 66303:1 66354:1 66400:1 66410:1 66412:1 66472:1 66529:1 66545:1 66722:1 67034:1 67088:1 67155:1 67693:1 68220:1 68375:1 68740:1 69376:1 69494:1 69904:1 71480:1 73038:1 73449:1 74275:1 79639:1 80762:1 85162:1 92215:1 
2200 482.8485690500839 184.4641700388611 97:1 2981:1 3764:1 6025:1 8542:1 10007:1 10383:1 12515:1 14445:1 16401:1 16915:1 19644:1 21866:1 21868:1 21903:1 21905:1 21968:1 24698:1 25500:1 27726:1 29948:1 32946:1 33749:1 35515:1 36208:1 37353:1 38516:1 38836:1 39100:1 39951:1 40365:1 41651:1 42242:1 42689:1 42783:1 42850:1 42913:1 43095:1 43140:1 43188:1 43368:1 43872:1 45088:1 45464:1 46836:1 48355:1 51223:1 53037:1 55120:1 55866:1 56484:1 57462:1 58620:1 59663:1 60631:1 62160:1 64394:1 66302:1 66330:1 66392:1 66410:1 66418:1 66467:1 66503:1 66544:1 66576:1 66984:1 67094:1 67212:1 67645:1 67981:1 68360:1 68594:1 69551:1 70102:1 71308:1 72319:1 73406:1 76499:1 77311:1 79077:1 79826:1 81026:1 88850:1 90814:1 92534:1 
1945.467893900325 889.7973387083365 300.0015114897007 493:1 2214:1 3159:1 6159:1 10007:1 10017:1 10383:1 13121:1 16401:1 16413:1 16915:1 20533:1 21864:1 21866:1 21868:1 21900:1 21903:1 21905:1 22646:1 23884:1 24871:1 28074:1 29804:1 30725:1 32103:1 33120:1 35515:1 36572:1 37353:1 38516:1 38593:1 39100:1 39566:1 40365:1 41431:1 42242:1 42665:1 42718:1 42850:1 42913:1 43095:1 43140:1 43188:1 43875:1 44669:1 45204:1 47070:1 48978:1 50071:1 50830:1 53348:1 55764:1 56374:1 57292:1 58278:1 60034:1 61292:1 62137:1 65071:1 66307:1 66347:1 66370:1 66410:1 66418:1 66467:1 66503:1 66549:1 66689:1 66836:1 67094:1 67212:1 67645:1 67981:1 68425:1 68707:1 68899:1 69551:1 70102:1 71308:1 72319:1 73261:1 74188:1 75603:1 76682:1 79077:1 80203:1 81026:1 82431:1 84995:1 88277:1 90940:1 93127:1 
610.9939900823819 0 0 355:1 3880:1 8542:1 10017:1 10697:1 13121:1 14445:1 16413:1 17352:1 20533:1 21864:1 21866:1 21868:1 21900:1 21902:1 21903:1 21905:1 22279:1 25616:1 29804:1 30364:1 31760:1 33865:1 35515:1 37353:1 38516:1 38593:1 39100:1 39566:1 40366:1 40764:1 42234:1 42665:1 42718:1 42802:1 42913:1 43095:1 43145:1 43188:1 43695:1 45534:1 47406:1 48700:1 51313:1 53816:1 55666:1 56738:1 58241:1 60017:1 63217:1 64492:1 66307:1 66347:1 66375:1 66410:1 66418:1 66467:1 66503:1 66549:1 66689:1 66868:1 67094:1 67212:1 67645:1 67981:1 68425:1 68707:1 68989:1 69551:1 70102:1 71308:1 72319:1 73261:1 73809:1 75270:1 77427:1 79077:1 81026:1 82501:1 84628:1 86217:1 88992:1 94463:1 
2200 724.2234471447287 0 536:1 6183:1 8542:1 10383:1 10697:1 12665:1 14445:1 16915:1 17352:1 19846:1 21864:1 21866:1 21868:1 21900:1 21902:1 21903:1 21905:1 22753:1 28131:1 29804:1 30834:1 31760:1 35515:1 36641:1 37353:1 38523:1 38597:1 39024:1 39567:1 40219:1 40765:1 41998:1 42665:1 42718:1 42802:1 42922:1 43095:1 43140:1 43188:1 43928:1 46086:1 47103:1 49058:1 52118:1 53397:1 55349:1 56685:1 58325:1 60718:1 62283:1 64955:1 66307:1 66347:1 66375:1 66410:1 66418:1 66467:1 66503:1 66549:1 66689:1 66868:1 67094:1 67212:1 67645:1 67981:1 68425:1 68707:1 68989:1 69551:1 70102:1 71308:1 72319:1 73261:1 74310:1 75270:1 79077:1 80275:1 81026:1 85201:1 86265:1 90963:1 93205:1 94516:1 
2200 0 0 4014:1 6403:1 10383:1 12233:1 12665:1 13121:1 16915:1 19268:1 19846:1 20533:1 21864:1 21866:1 21868:1 21900:1 21902:1 21903:1 21905:1 25752:1 28514:1 29804:1 31760:1 34001:1 35515:1 37044:1 37353:1 38516:1 38593:1 39100:1 39509:1 40365:1 40752:1 42242:1 42665:1 42721:1 42802:1 42913:1 43095:1 43140:1 43188:1 44299:1 45588:1 47368:1 49592:1 51392:1 53738:1 55312:1 56807:1 58620:1 60106:1 63026:1 65033:1 66307:1 66347:1 66375:1 66410:1 66418:1 66467:1 66503:1 66549:1 66689:1 66868:1 67094:1 67212:1 67645:1 67981:1 68425:1 68707:1 68989:1 69551:1 70102:1 71308:1 72318:1 73261:1 75270:1 77563:1 79077:1 80698:1 81026:1 82517:1 89138:1 91139:1 93793:1 94504:1 
1977.276835897218 0 0 566:1 4968:1 6356:1 8268:1 8726:1 10697:1 12233:1 13121:1 14689:1 17352:1 19268:1 20533:1 21864:1 21866:1 21868:1 21900:1 21902:1 21903:1 22843:1 26709:1 28425:1 29789:1 29804:1 30927:1 31760:1 34958:1 35515:1 36947:1 38505:1 38516:1 38593:1 39100:1 39566:1 40365:1 40764:1 42246:1 42665:1 42718:1 42802:1 42913:1 43095:1 43140:1 43235:1 43962:1 46035:1 47302:1 49118:1 52039:1 53661:1 55388:1 57292:1 58381:1 60594:1 63153:1 65301:1 66307:1 66347:1 66375:1 66410:1 66418:1 66467:1 66497:1 66549:1 66689:1 66868:1 67094:1 67212:1 67640:1 67906:1 68425:1 68707:1 68989:1 69551:1 70101:1 71288:1 72060:1 73234:1 73261:1 74406:1 75270:1 78520:1 79077:1 80597:1 82177:1 82670:1 85295:1 86274:1 90024:1 91110:1 93700:1 
1421.017965927951 0 0 762:1 4787:1 6001:1 6041:1 8726:1 10697:1 12665:1 14689:1 17352:1 19846:1 21835:1 21864:1 21866:1 21868:1 21883:1 21900:1 21902:1 21905:1 23308:1 26536:1 27665:1 27765:1 29804:1 31406:1 31760:1 34785:1 36016:1 36254:1 37357:1 38516:1 38593:1 39111:1 39566:1 40430:1 40764:1 42368:1 42665:1 42718:1 42802:1 42913:1 43116:1 43140:1 43190:1 44258:1 45948:1 46868:1 49515:1 51921:1 53078:1 55666:1 56892:1 58554:1 60672:1 63618:1 64622:1 66307:1 66347:1 66375:1 66410:1 66412:1 66467:1 66508:1 66549:1 66689:1 66868:1 67088:1 67151:1 67649:1 68424:1 68707:1 68989:1 69490:1 69880:1 73232:1 73261:1 74903:1 75270:1 78347:1 79639:1 79870:1 81028:1 82649:1 85798:1 86326:1 89860:1 
1358.442626798401 7.791501779216373 780.4630925343012 205:1 1114:1 2535:1 7137:1 10493:1 11137:1 12551:1 12646:1 17919:1 19683:1 19814:1 21824:1 21825:1 21866:1 21903:1 22009:1 22604:1 24235:1 28652:1 29988:1 30686:1 32470:1 35515:1 37190:1 38516:1 38717:1 39100:1 39670:1 40379:1 41460:1 42270:1 42681:1 42775:1 42850:1 42913:1 43095:1 43173:1 43235:1 44836:1 45842:1 47848:1 50325:1 51739:1 54383:1 56228:1 56914:1 59233:1 61761:1 63317:1 66303:1 66354:1 66368:1 66410:1 66418:1 66468:1 66529:1 66545:1 66722:1 66809:1 67094:1 67213:1 67668:1 68220:1 68380:1 68740:1 68852:1 69552:1 70113:1 71416:1 73038:1 73252:1 73524:1 74148:1 75977:1 79077:1 80854:1 84950:1 87367:1 91189:1 
1844.926004681451 0 2200 205:1 1203:1 2133:1 5711:1 6752:1 8905:1 12453:1 12476:1 12871:1 14918:1 19557:1 19594:1 20154:1 21824:1 21828:1 21866:1 21869:1 22009:1 22719:1 23787:1 27421:1 28040:1 29988:1 30802:1 32005:1 35766:1 36535:1 38527:1 42681:1 42783:1 42850:1 43116:1 43168:1 43220:1 44610:1 45393:1 48073:1 54636:1 56086:1 57488:1 66303:1 66354:1 66385:1 66410:1 66434:1 66452:1 66514:1 66545:1 66722:1 66937:1 67110:1 67360:1 67533:1 68107:1 68394:1 68740:1 69148:1 69699:1 70521:1 71013:1 72704:1 73524:1 74275:1 75497:1 79339:1 80162:1 85165:1 86569:1 91652:1 
0 0 60.9058743754858 113:1 1419:1 3407:1 7005:1 7547:1 9435:1 11530:1 12253:1 15552:1 18395:1 19294:1 21821:1 21824:1 21828:1 21833:1 21866:1 21879:1 21886:1 21903:1 21987:1 23038:1 25137:1 28469:1 28977:1 29966:1 31133:1 31834:1 33386:1 35515:1 36996:1 37660:1 38523:1 38681:1 39024:1 39859:1 40230:1 40888:1 42023:1 42680:1 42783:1 42806:1 42922:1 43095:1 43173:1 43235:1 44080:1 44503:1 45338:1 47344:1 47762:1 49269:1 49864:1 51017:1 53701:1 54230:1 55803:1 56016:1 57477:1 58252:1 59548:1 60953:1 61074:1 62780:1 65068:1 65990:1 66319:1 66346:1 66409:1 66410:1 66418:1 66476:1 66531:1 66561:1 66680:1 67082:1 67094:1 67221:1 67744:1 68240:1 68527:1 68698:1 69451:1 69560:1 70171:1 71656:1 73092:1 73424:1 74610:1 75339:1 76948:1 79077:1 80644:1 81300:1 82982:1 85495:1 88530:1 91120:1 
1589.520856447245 89.28244940986521 0 1226:1 2692:1 3240:1 7159:1 9727:1 11059:1 12981:1 13404:1 15993:1 16861:1 17801:1 20304:1 21866:1 21903:1 23484:1 24395:1 24963:1 28675:1 31576:1 32634:1 33212:1 35515:1 37220:1 38516:1 38836:1 39100:1 39951:1 40379:1 41651:1 42270:1 42689:1 42783:1 42850:1 42913:1 43095:1 43173:1 43235:1 43530:1 43923:1 45242:1 47457:1 48160:1 48535:1 50901:1 53876:1 54805:1 55162:1 55455:1 57081:1 58501:1 59548:1 63555:1 65209:1 65876:1 66322:1 66362:1 66393:1 66410:1 66418:1 66450:1 66531:1 66564:1 67094:1 67202:1 67499:1 68238:1 68568:1 69541:1 70036:1 73085:1 73232:1 73251:1 74300:1 76162:1 76774:1 79077:1 80885:1 88364:1 91204:1 
585.4013075659752 145.5922853058528 0 169:1 1837:1 2970:1 3240:1 7236:1 13733:1 14108:1 21318:1 21805:1 21866:1 21903:1 22042:1 23657:1 24682:1 24963:1 28785:1 29743:1 30022:1 31754:1 32931:1 33212:1 35515:1 37338:1 38460:1 38516:1 38884:1 39100:1 39979:1 40379:1 42270:1 42690:1 42783:1 42850:1 42913:1 43095:1 43173:1 43235:1 43421:1 44461:1 45242:1 48192:1 48420:1 49813:1 50901:1 54850:1 54973:1 55564:1 57081:1 59037:1 59616:1 61036:1 63555:1 65576:1 66319:1 66346:1 66374:1 66410:1 66418:1 66474:1 66529:1 66561:1 66680:1 66860:1 67094:1 67219:1 67713:1 68220:1 68527:1 68698:1 68970:1 69558:1 70146:1 71542:1 73041:1 73232:1 73484:1 75263:1 76485:1 76774:1 79077:1 81012:1 88364:1 91248:1 
866.9554514731906 860.9585846347619 1480.630865727235 113:1 1634:1 2597:1 7088:1 12855:1 13883:1 20134:1 21507:1 21824:1 21826:1 21866:1 21903:1 21987:1 23360:1 24050:1 28563:1 29762:1 29966:1 31457:1 32274:1 35515:1 37101:1 38516:1 38678:1 39100:1 39856:1 40379:1 41306:1 42270:1 42680:1 42783:1 42845:1 42913:1 43095:1 43173:1 43235:1 44266:1 45896:1 47388:1 48205:1 49545:1 51845:1 54872:1 55388:1 57283:1 58713:1 59243:1 60594:1 63149:1 65906:1 66319:1 66346:1 66371:1 66410:1 66418:1 66472:1 66529:1 66561:1 66680:1 66847:1 67094:1 67217:1 67693:1 68210:1 68527:1 68698:1 68924:1 69556:1 70132:1 71475:1 73010:1 73237:1 73424:1 74955:1 76049:1 79077:1 80762:1 85857:1 87550:1 91161:1 
0 10.83118188822289 107.0880890712554 113:1 1186:1 1913:1 5268:1 6001:1 6914:1 7785:1 8328:1 10200:1 10927:1 13610:1 14145:1 16668:1 17625:1 21163:1 21824:1 21826:1 21828:1 21833:1 21845:1 21865:1 21866:1 21987:1 22697:1 24050:1 27007:1 27665:1 28040:1 29266:1 29966:1 30780:1 32274:1 35256:1 36016:1 36535:1 37957:1 38523:1 38681:1 39032:1 39859:1 40262:1 41308:1 42091:1 42680:1 42783:1 42845:1 42922:1 43116:1 43168:1 43235:1 43902:1 46180:1 47891:1 49015:1 52256:1 54433:1 55564:1 57301:1 59274:1 60142:1 62139:1 65821:1 66319:1 66346:1 66371:1 66410:1 66412:1 66452:1 66513:1 66561:1 66680:1 66847:1 67088:1 67145:1 67532:1 68061:1 68521:1 68698:1 68924:1 69484:1 69853:1 70983:1 72537:1 73244:1 73249:1 73424:1 74251:1 75775:1 78818:1 79639:1 80464:1 81588:1 83265:1 85058:1 87018:1 90292:1 92174:1 93446:1 95223:1 
0 653.3326437793146 0 141:1 2037:1 6509:1 7677:1 10434:1 10683:1 16988:1 17332:1 21829:1 21866:1 21903:1 22014:1 23665:1 27671:1 29140:1 29993:1 31884:1 35515:1 36154:1 37828:1 38516:1 38836:1 39100:1 39951:1 40379:1 41651:1 42269:1 42689:1 42783:1 42850:1 42913:1 43095:1 43173:1 43231:1 44299:1 46134:1 49587:1 52188:1 55809:1 60047:1 66319:1 66359:1 66394:1 66410:1 66418:1 66476:1 66499:1 66561:1 66757:1 67017:1 67094:1 67221:1 67729:1 67942:1 68527:1 68775:1 69333:1 69560:1 70157:1 71572:1 72169:1 73455:1 75375:1 79077:1 79769:1 81458:1 90791:1 92470:1 95034:1 
2200 2200 2110.012115296632 113:1 2363:1 9813:1 16107:1 21824:1 21826:1 21866:1 21881:1 21903:1 21987:1 24050:1 29966:1 32274:1 35518:1 38516:1 38678:1 39102:1 39856:1 41306:1 42680:1 42783:1 42845:1 42913:1 43097:1 45635:1 55370:1 56963:1 66319:1 66346:1 66371:1 66410:1 66423:1 66561:1 66680:1 66847:1 67099:1 68532:1 68698:1 68924:1 73230:1 73424:1 75775:1 79080:1 
0 903.0142400135669 422.416942290316 186:1 1187:1 2037:1 5353:1 6752:1 7470:1 8771:1 10194:1 11028:1 11678:1 14751:1 16656:1 17766:1 18577:1 21825:1 21828:1 21833:1 21866:1 22062:1 22700:1 23665:1 27095:1 28040:1 28886:1 30040:1 30784:1 31884:1 35344:1 36535:1 37565:1 38523:1 38842:1 39035:1 39762:1 40267:1 41535:1 42689:1 42778:1 42850:1 42922:1 43119:1 43168:1 43235:1 43441:1 46244:1 47698:1 48441:1 52331:1 54144:1 55164:1 56637:1 58020:1 59461:1 59799:1 62848:1 64206:1 65744:1 66315:1 66333:1 66394:1 66410:1 66434:1 66452:1 66496:1 66557:1 66606:1 67004:1 67110:1 67360:1 67529:1 67890:1 68504:1 68624:1 69285:1 69699:1 70518:1 70974:1 72019:1 73504:1 74254:1 75375:1 78906:1 80162:1 81205:1 83856:1 85104:1 86463:1 
804.5656643110664 359.9296234918633 374.3147680464866 304:1 1114:1 2927:1 3746:1 5711:1 6752:1 8109:1 12725:1 13371:1 20832:1 21825:1 21828:1 21866:1 22183:1 22604:1 24644:1 25481:1 27421:1 28040:1 29602:1 30166:1 30686:1 32890:1 33730:1 35766:1 36535:1 38314:1 38516:1 38836:1 39111:1 39727:1 40436:1 41512:1 42391:1 42689:1 42775:1 42850:1 42913:1 43116:1 43168:1 43235:1 45054:1 45454:1 48108:1 50637:1 51209:1 56162:1 57317:1 59393:1 61807:1 62509:1 66306:1 66354:1 66385:1 66410:1 66434:1 66452:1 66519:1 66548:1 66725:1 66937:1 67110:1 67360:1 67534:1 68131:1 68743:1 69151:1 69699:1 70522:1 71021:1 72754:1 73246:1 73629:1 74148:1 76438:1 77292:1 79339:1 80162:1 81980:1 84958:1 87995:1 91652:1 93024:1 95756:1 
458.1067536826856 0 0 141:1 2599:1 3880:1 6001:1 7398:1 8852:1 9579:1 10099:1 11678:1 14853:1 15778:1 16538:1 18572:1 21826:1 21866:1 22014:1 24050:1 25616:1 27665:1 28319:1 28800:1 29993:1 32274:1 33865:1 36016:1 37478:1 38516:1 38836:1 39111:1 39951:1 40439:1 41329:1 42404:1 42689:1 42783:1 42845:1 42913:1 43116:1 43173:1 43235:1 43884:1 44870:1 45534:1 47230:1 48994:1 51313:1 53563:1 55660:1 56285:1 56738:1 58442:1 60671:1 63217:1 66319:1 66346:1 66371:1 66410:1 66412:1 66484:1 66524:1 66561:1 66680:1 66847:1 67088:1 67162:1 67803:1 68174:1 68521:1 68698:1 68924:1 69501:1 69933:1 71837:1 72858:1 73455:1 76051:1 77427:1 79639:1 81120:1 83724:1 89009:1 94646:1 
737.287471952176 0 0 135:1 1203:1 2897:1 5670:1 6456:1 7635:1 11905:1 13115:1 13404:1 13424:1 18866:1 20518:1 20888:1 20896:1 21824:1 21827:1 21866:1 21868:1 22009:1 22719:1 24609:1 27381:1 28664:1 29095:1 29988:1 30802:1 32855:1 35728:1 37208:1 37783:1 38524:1 38761:1 39145:1 39913:1 40505:1 41619:1 42482:1 42681:1 42783:1 42850:1 42978:1 43109:1 43140:1 43235:1 45035:1 47448:1 47798:1 50606:1 53863:1 54303:1 56045:1 56892:1 58560:1 59446:1 61834:1 63696:1 64810:1 65739:1 66303:1 66354:1 66403:1 66410:1 66434:1 66467:1 66524:1 66545:1 66722:1 67055:1 67110:1 67367:1 67659:1 68179:1 68394:1 68740:1 69403:1 69706:1 70561:1 71385:1 72899:1 73449:1 74275:1 76402:1 79296:1 80867:1 81407:1 85162:1 87951:1 91570:1 94943:1 
242.7124682137491 913.9997452322255 860.7118493674189 113:1 1288:1 2940:1 5802:1 6757:1 7861:1 9205:1 10652:1 11213:1 13416:1 15261:1 17294:1 18038:1 20882:1 21824:1 21829:1 21866:1 21987:1 22831:1 24655:1 27484:1 28050:1 29140:1 29966:1 32902:1 35829:1 36544:1 37828:1 38516:1 38678:1 39111:1 39856:1 40439:1 41583:1 42402:1 42680:1 42783:1 42850:1 42913:1 43116:1 43173:1 43231:1 43956:1 45059:1 45869:1 46582:1 49109:1 50645:1 51799:1 52736:1 55374:1 56119:1 57535:1 58041:1 60863:1 61464:1 62185:1 63982:1 66319:1 66330:1 66385:1 66410:1 66439:1 66476:1 66499:1 66561:1 66585:1 66922:1 67115:1 67411:1 67729:1 67942:1 68546:1 68603:1 69103:1 69750:1 70712:1 71572:1 72157:1 73251:1 73424:1 74393:1 76452:1 79430:1 80171:1 81680:1 91807:1 93075:1 
340.3105780471394 256.7509878493367 409.7157605610341 249:1 3518:1 6752:1 8374:1 9727:1 10403:1 11090:1 14209:1 15993:1 16942:1 17841:1 21824:1 21828:1 21866:1 21901:1 21905:1 22123:1 24222:1 25224:1 28040:1 30103:1 30197:1 32458:1 33473:1 36535:1 37349:1 38516:1 38836:1 39111:1 39315:1 40436:1 41358:1 42382:1 42689:1 42696:1 42850:1 42913:1 43116:1 43168:1 43184:1 43508:1 44833:1 45359:1 46649:1 48504:1 50313:1 51061:1 52814:1 54985:1 56491:1 57714:1 58003:1 59801:1 61643:1 62945:1 63891:1 66319:1 66339:1 66368:1 66410:1 66438:1 66452:1 66505:1 66561:1 66642:1 66803:1 67114:1 67390:1 67531:1 68009:1 68545:1 68660:1 68837:1 69729:1 70981:1 72407:1 73569:1 73662:1 77035:1 80162:1 81022:1 84398:1 92908:1 
1442.740314527019 0 1502.287244376245 205:1 1114:1 2914:1 3880:1 7088:1 8065:1 12759:1 13159:1 19992:1 20588:1 21822:1 21824:1 21825:1 21866:1 22009:1 22604:1 24624:1 25616:1 28563:1 29563:1 29988:1 30686:1 32871:1 33865:1 37101:1 38276:1 38516:1 38717:1 39111:1 39670:1 40439:1 41460:1 42404:1 42681:1 42775:1 42850:1 42913:1 43116:1 43173:1 43235:1 45038:1 45534:1 46574:1 47388:1 48095:1 50618:1 51313:1 54684:1 56432:1 56738:1 57950:1 58713:1 59314:1 61699:1 63217:1 65696:1 66303:1 66354:1 66385:1 66410:1 66411:1 66472:1 66529:1 66545:1 66722:1 66937:1 67087:1 67136:1 67693:1 68224:1 68374:1 68740:1 69148:1 69475:1 69823:1 71482:1 73056:1 73524:1 74148:1 76420:1 77427:1 80762:1 81927:1 83973:1 84950:1 
0 444.6964399387551 0 113:1 1074:1 2597:1 4582:1 5975:1 7215:1 9553:1 13659:1 15736:1 21212:1 21824:1 21826:1 21833:1 21866:1 21905:1 21987:1 22546:1 24050:1 26325:1 27645:1 28746:1 29966:1 30631:1 32274:1 34574:1 35998:1 37299:1 37349:1 38516:1 38678:1 39113:1 39856:1 40450:1 41306:1 42680:1 42783:1 42845:1 42913:1 43119:1 43173:1 43184:1 43834:1 45867:1 46702:1 47509:1 48897:1 51780:1 52884:1 55388:1 56935:1 57943:1 58874:1 60594:1 63322:1 64220:1 66319:1 66346:1 66371:1 66410:1 66439:1 66454:1 66505:1 66561:1 66680:1 66847:1 67115:1 67398:1 67547:1 68010:1 68546:1 68698:1 68924:1 69737:1 70669:1 71065:1 72408:1 73424:1 74090:1 76049:1 78136:1 79612:1 80968:1 81022:1 84895:1 87461:1 94205:1 
284.4860798878731 258.2491027317429 0 36:1 1640:1 5449:1 5867:1 6809:1 7861:1 8418:1 10507:1 12702:1 13957:1 14286:1 17102:1 19899:1 21614:1 21827:1 21829:1 21866:1 21906:1 23365:1 24762:1 27197:1 27547:1 28097:1 29140:1 29888:1 31462:1 33009:1 35446:1 35897:1 36602:1 37828:1 38516:1 38836:1 39111:1 39951:1 40439:1 41651:1 42402:1 42689:1 42783:1 42850:1 42913:1 43116:1 43173:1 43231:1 44269:1 45132:1 46306:1 46636:1 47081:1 49549:1 50740:1 52395:1 52791:1 53368:1 55681:1 56068:1 56914:1 57861:1 58313:1 60266:1 62716:1 64139:1 64773:1 66319:1 66352:1 66400:1 66410:1 66434:1 66484:1 66499:1 66561:1 66717:1 67033:1 67110:1 67375:1 67793:1 67942:1 68543:1 68735:1 69374:1 69714:1 70580:1 71817:1 72173:1 73342:1 74961:1 79008:1 79497:1 80234:1 81680:1 91898:1 95382:1 
